tree
version=v4
num_class=1
num_tree_per_iteration=1
label_index=0
max_feature_idx=83
objective=regression
feature_names=TMP_2m HGT_prl month day_of_month hour day_of_week season is_monsoon month_sin month_cos hour_sin hour_cos day_of_year_sin day_of_year_cos APCP_sfc_lag_6h APCP_sfc_lag_12h APCP_sfc_lag_24h APCP_sfc_lag_48h TMP_2m_lag_6h TMP_2m_lag_12h TMP_2m_lag_24h TMP_2m_lag_48h HGT_prl_lag_6h HGT_prl_lag_12h HGT_prl_lag_24h HGT_prl_lag_48h APCP_sfc_roll_mean_24h APCP_sfc_roll_std_24h APCP_sfc_roll_min_24h APCP_sfc_roll_max_24h APCP_sfc_roll_mean_48h APCP_sfc_roll_std_48h APCP_sfc_roll_min_48h APCP_sfc_roll_max_48h APCP_sfc_roll_mean_72h APCP_sfc_roll_std_72h APCP_sfc_roll_min_72h APCP_sfc_roll_max_72h APCP_sfc_roll_mean_144h APCP_sfc_roll_std_144h APCP_sfc_roll_min_144h APCP_sfc_roll_max_144h TMP_2m_roll_mean_24h TMP_2m_roll_std_24h TMP_2m_roll_min_24h TMP_2m_roll_max_24h TMP_2m_roll_mean_48h TMP_2m_roll_std_48h TMP_2m_roll_min_48h TMP_2m_roll_max_48h TMP_2m_roll_mean_72h TMP_2m_roll_std_72h TMP_2m_roll_min_72h TMP_2m_roll_max_72h TMP_2m_roll_mean_144h TMP_2m_roll_std_144h TMP_2m_roll_min_144h TMP_2m_roll_max_144h HGT_prl_roll_mean_24h HGT_prl_roll_std_24h HGT_prl_roll_min_24h HGT_prl_roll_max_24h HGT_prl_roll_mean_48h HGT_prl_roll_std_48h HGT_prl_roll_min_48h HGT_prl_roll_max_48h HGT_prl_roll_mean_72h HGT_prl_roll_std_72h HGT_prl_roll_min_72h HGT_prl_roll_max_72h HGT_prl_roll_mean_144h HGT_prl_roll_std_144h HGT_prl_roll_min_144h HGT_prl_roll_max_144h TMP_HGT_ratio TMP_squared HGT_log TMP_gradient HGT_gradient is_dry_day precip_intensity precip_sum_3d precip_sum_7d precip_sum_14d
feature_infos=[276.13324:318.44177000000002] [5548.1854999999996:5905.9813999999997] -1:5:6:7:8:4:2:3:1:0:9:10:11 -1:2:20:0:11:24:3:28:1:16:23:25:6:9:22:26:19:18:10:13:27:4:5:21:29:7:12:14:15:17:30:8 -1:1:2:0:3 -1:2:3:4:1:6:0:5 -1:2:1:0:3 -1:1:0 [-1:1] [-1:1] [-1:1] [-1:1] [-0.99999073973619013:0.99991665865473789] [-0.99996295911626554:0.9994074007397048] [0:37.375] [0:37.375] [0:37.375] [0:37.375] [277.97190000000001:317.99761999999998] [277.51130000000001:318.44177000000002] [275.65082000000001:318.44177000000002] [275.23070000000001:318.07670000000002] [5548.1854999999996:5905.9813999999997] [5554.3887000000004:5905.9813999999997] [5548.1854999999996:5905.9813999999997] [5548.1854999999996:5899.9673000000003] [5.1842925e-28:14.017578125] [1.531544e-13:17.803549926179283] [0:4.1484375] [2.073717e-27:37.375] [1.281136625e-14:8.5458984375] [0:12.779240777063778] [0:1.15625] [1.0249093e-13:37.375] [8.5409108333333326e-15:6.498697916666667] [0:10.620360293336033] [0:0.7734375] [1.0249093e-13:37.375] [0.0013020833333333333:3.9824218750000058] [0.0063788795363406807:7.6913334931943078] none [0.03125:37.375] [280.66179999999997:316.23710999999997] [0.68839207942584368:11.283007635161802] [276.13324:312.33722] [284.41829999999999:318.44177000000002] [280.96321374999997:312.92475999999999] [0.94679043116393868:10.349339644263505] [275.65082000000001:303.35253999999998] [285.18450000000001:318.44177000000002] [281.29480416666667:310.49999416666668] [1.2941669040379531:10.110540011242325] [275.23070000000001:302.94116000000002] [287.72381999999999:318.44177000000002] [282.50282083333337:308.08278041666665] [1.6269161289117484:9.141081573882456] [274.99274000000003:301.04669999999999] [288.93047999999999:318.44177000000002] [5578.0691749999996:5898.0663749999994] [1.0869521652481264:98.522017117266302] [5548.1854999999996:5889.2313999999997] [5614.973:5905.9813999999997] [5605.6773874999999:5883.0637374999997] [2.0933994843423984:86.980197364960716] [5548.1854999999996:5870.732] [5699.1895000000004:5905.9813999999997] [5630.7068583333339:5878.2851916666668] [4.96589833203626:79.825487718580575] [5548.1854999999996:5860.0569999999998] [5728.1513999999997:5905.9813999999997] [5661.5483249999997:5876.5752833333327] [8.6240933139632094:79.96129609088041] [5548.1854999999996:5857.8915999999999] [5743.7089999999998:5905.9813999999997] [0.048118381515036494:0.054339453216720526] [76249.566232897603:101405.16088073292] [8.6214064392138976:8.683890218495776] [-14.803959999999961:21.496980000000008] [-126.89239999999972:167.5639999999994] -1:0:1 -1:1:0:2:3 [1.0249093e-13:77.984375] [0.109375:96.687500000000142] [1.140625:179.57421850000031]
tree_sizes=922 849 734 848 827 843 887 1005 735 751 933 935 813 642 800 910 815 926 902 812 844 899 963 821 826 893 920 903 831 728 924 999 726 644 666 581 597 597 848 673 596 678 930 860 587 587 877 596 949 732 683 745 653 649 727 797 659 659 597 656 758 516 640 673 680 504 678 678 674 796 776 772 650 599 703 717 575 584 668 682 507 493 600 599 723 578 562 591 497 426 874 656 538 520 591 550 421 625 496 478 506 507 422 424 403 419 514 495 526 527 429 544 511 429 462 608 613 642 785 492 409 425 740 551 450 414 506 429 569 482 722 679 402 570 463 464 590 650 434 435 403 560 480 499 584 679 424 440 652 491 465 528 466 542 656 658 403 508 487 600 517 499 489 505 418 425 349 351 698 633 534 532 480 487 522 523 525 523 543 543 424 503 492 492 469 548 486 693 471 497 313 330 485 508 627 529 441 543 551 542 485 533 340 493 325 324 543 549 480 482 314 314 351 351 312 328 632 555 570 569 655 403 454 419 528 571 341 404 483 403 479 481 411 312 497 512 447 479 591 591 532 466 387 387 570 468 503 647 341 339 548 533 477 389 544 545 425 425 528 466 595 674 543 406 526 528 565 403 328 432

Tree=0
num_leaves=9
num_cat=2
split_feature=27 79 27 27 11 79 43 26
split_gain=786.57 293.788 218.955 67.7592 54.3466 16.8496 1.95766 1.52676
threshold=2.1506376722323077 0 4.3410206250529315 1.1927310779059923 1.0000000180025095e-35 1 2.413655353239458 0.71484375000000011
decision_type=2 1 2 2 2 1 2 2
left_child=3 2 4 7 -2 6 -5 -1
right_child=1 -3 -4 5 -6 -7 -8 -9
leaf_value=1.8098648932861621 1.8827058777915704 1.8408937053738434 2.1866364014832085 1.8827058777915704 1.9872876331024896 1.8429341424640941 1.9003837639580707 1.8717443257459627
leaf_weight=170 17 15.999999999999998 15.999999999999998 14.999999999999998 37 14.999999999999998 30 24
leaf_count=170 17 16 16 15 37 15 30 24
internal_value=1.87569 2.00157 2.04501 1.82863 1.95811 1.88271 1.89407 1.81431
internal_weight=340 86 70 254 54 60 45 194
internal_count=340 86 70 254 54 60 45 194
cat_boundaries=0 1 2
cat_threshold=1 1
is_linear=0
shrinkage=1


Tree=1
num_leaves=8
num_cat=2
split_feature=29 79 27 11 27 79 43
split_gain=749.602 236.73 219.369 57.7467 53.5129 20.2675 1.36239
threshold=4.9023437500000009 0 4.3410206250529315 1.0000000180025095e-35 1.1927310779059923 1 2.413655353239458
decision_type=2 1 2 2 2 1 2
left_child=4 2 3 -2 -1 6 -6
right_child=1 -3 -4 -5 5 -7 -8
leaf_value=-0.065180232102791322 0 -0.035745784509983655 0.29387497727855622 0.098273631127560782 0 -0.042777918473289163 0.016322350244239659
leaf_weight=194 15.999999999999998 13.999999999999998 15.999999999999998 40 13.999999999999998 17 29
leaf_count=194 16 14 16 40 14 17 29
internal_value=-0.00633255 0.116521 0.152794 0.0700876 -0.0523215 -0.000651991 0.0111724
internal_weight=340 86 72 56 254 60 43
internal_count=340 86 72 56 254 60 43
cat_boundaries=0 1 2
cat_threshold=1 1
is_linear=0
shrinkage=0.0515883


Tree=2
num_leaves=7
num_cat=1
split_feature=27 29 79 55 71 29
split_gain=908.31 285.518 130.226 48.1836 41.9081 26.4077
threshold=9.7766223224966247 3.8046875000000004 0 4.846800884899646 14.903580036355098 1.2851562500000002
decision_type=2 2 1 2 2 2
left_child=1 5 3 4 -3 -1
right_child=-2 2 -4 -5 -6 -7
leaf_value=-0.069790366575417623 0.30576166511581132 0 -0.047853376553111227 0 0.11458217730209377 -0.018687614258812088
leaf_weight=150 14.999999999999998 17 21 24 46 79
leaf_count=150 15 17 21 24 46 79
internal_value=-0.000136269 -0.0227095 0.0417302 0.0708515 0.0920693 -0.0555636
internal_weight=352 337 108 87 63 229
internal_count=352 337 108 87 63 229
cat_boundaries=0 1
cat_threshold=1
is_linear=0
shrinkage=0.0515883


Tree=3
num_leaves=8
num_cat=1
split_feature=27 29 79 67 29 55 67
split_gain=848.233 260.231 120.953 65.1169 22.859 20.2438 1.77223
threshold=9.7766223224966247 3.8046875000000004 0 13.343669848643858 1.2851562500000002 4.846800884899646 11.023253205778053
decision_type=2 2 1 2 2 2 2
left_child=1 4 3 6 -1 -5 -3
right_child=-2 2 -4 5 -6 -7 -8
leaf_value=-0.066392686232656414 0.29588177063514776 0.013530256887019166 -0.046122319638893808 0.11365747743683359 -0.017821640542864427 0 -0.0044569454516758689
leaf_weight=150 14.999999999999998 14.000000000000002 21 43 79 12.999999999999998 17
leaf_count=150 15 14 21 43 79 13 17
internal_value=0 -0.0215644 0.0398485 0.0680176 -0.0529739 0.0974825 0
internal_weight=352 337 108 87 229 56 31
internal_count=352 337 108 87 229 56 31
cat_boundaries=0 1
cat_threshold=1
is_linear=0
shrinkage=0.0515883


Tree=4
num_leaves=8
num_cat=1
split_feature=26 14 29 79 15 14 27
split_gain=1042.71 230.678 158.995 76.4327 36.271 24.4377 12.4612
threshold=4.717773375000001 5.1289062500000009 3.8046875000000004 0 4.6796875000000009 3.8046875000000004 0.66510686367523253
decision_type=2 2 2 1 2 2 2
left_child=2 -2 6 4 5 -4 -1
right_child=1 -3 3 -5 -6 -7 -8
leaf_value=-0.061763450578726738 0.37813437311042908 0.029326414807405034 0.091287539030007331 -0.041575146386728712 0 0 -0.019000213559371266
leaf_weight=146 13.000000000000002 12.999999999999998 37 19 17 17 77
leaf_count=146 13 13 37 19 17 17 77
internal_value=0.000861847 0.269762 -0.0268465 0.025872 0.0526167 0.0710611 -0.0503899
internal_weight=339 26 313 90 71 54 223
internal_count=339 26 313 90 71 54 223
cat_boundaries=0 1
cat_threshold=1
is_linear=0
shrinkage=0.0515883


Tree=5
num_leaves=8
num_cat=1
split_feature=26 29 18 79 15 38 27
split_gain=979.991 144.488 99.3773 70.9625 33.8943 18.2464 10.3531
threshold=4.717773375000001 3.8046875000000004 301.44636500000007 0 4.6796875000000009 0.8284505208333367 0.61718750000001876
decision_type=2 2 2 1 2 2 2
left_child=1 6 -2 4 5 -3 -1
right_child=2 3 -4 -5 -6 -7 -8
leaf_value=-0.059026990058188164 0.050385933609290945 0 0.34462453670793342 -0.040117056645553303 0 0.085368265224809434 -0.018583982606862181
leaf_weight=144 13.000000000000002 15.999999999999998 12.999999999999998 19 17 38 79
leaf_count=144 13 16 13 19 17 38 79
internal_value=0.00124671 -0.0255818 0.261943 0.0245229 0.0504373 0.068293 -0.0480589
internal_weight=339 313 26 90 71 54 223
internal_count=339 313 26 90 71 54 223
cat_boundaries=0 1
cat_threshold=1
is_linear=0
shrinkage=0.0515883


Tree=6
num_leaves=9
num_cat=1
split_feature=26 26 79 26 65 10 20 14
split_gain=733.742 156.115 78.9885 47.2047 11.2331 9.3976 7.75468 5.96722
threshold=4.8710936250000012 0.68847656250000655 0 2.0683593750000262 5876.4939000000004 0.50000000000000022 301.36286500000006 0.27343750000000006
decision_type=2 2 1 2 2 2 2 2
left_child=1 -1 3 5 -5 7 -7 -3
right_child=-2 2 -4 4 -6 6 -8 -9
leaf_value=-0.053955610782906456 0.24135359514075974 0 -0.049420550120063356 0.088147082628557527 0 0 0.037000755985294793 -0.024636647539320135
leaf_weight=174 22 23 27 31 13.999999999999998 12.999999999999998 23 21
leaf_count=174 22 23 27 31 14 13 23 21
internal_value=0 -0.0211595 0.0142845 0.0340454 0.0721069 0.00208667 0.0226704 -0.00658599
internal_weight=348 326 152 125 45 80 36 44
internal_count=348 326 152 125 45 80 36 44
cat_boundaries=0 1
cat_threshold=1
is_linear=0
shrinkage=0.0515883


Tree=7
num_leaves=10
num_cat=0
split_feature=26 29 14 10 44 0 20 26 20
split_gain=680.859 125.559 107.93 84.4297 16.2946 10.9364 8.8333 8.09111 2.37992
threshold=3.9248046875000004 2.3906250000000004 5.1289062500000009 0.50000000000000022 300.35065000000003 302.32055500000007 300.48210000000006 0.71484375000000011 304.44218500000005
decision_type=2 2 2 2 2 2 2 2 2
left_child=1 7 -2 4 8 -6 -5 -1 -3
right_child=2 3 -4 6 5 -7 -8 -9 -10
leaf_value=-0.052631194729052103 0.27189667740420442 -0.040630269825820797 0.02065312700068437 0 0.03562830443118651 -0.0072404978791092223 0.079088650521428536 0 0
leaf_weight=172 17.000000000000004 32 12.999999999999998 14.999999999999998 12.999999999999998 19 32 21 13.999999999999998
leaf_count=172 17 32 13 15 13 19 32 21 14
internal_value=5.18764e-05 -0.0229089 0.205227 0.0139442 -0.0144356 0.00231874 0.0644812 -0.0487377 -0.0333908
internal_weight=348 318 30 125 78 32 47 193 46
internal_count=348 318 30 125 78 32 47 193 46
is_linear=0
shrinkage=0.0515883


Tree=8
num_leaves=7
num_cat=0
split_feature=26 29 10 58 26 59
split_gain=588.263 132.242 77.5675 7.7729 5.73827 1.50435
threshold=4.8710936250000012 4.1640625000000009 0.50000000000000022 5851.8090250000005 1.3466796875000002 4.3444595076146593
decision_type=2 2 2 2 2 2
left_child=1 4 3 -3 5 -1
right_child=-2 2 -4 -5 -6 -7
leaf_value=0 0.20828518785135683 -0.024737946779955517 0.08290622355171548 0.0029068166679142664 0 -0.046498544929065695
leaf_weight=12.999999999999998 23 27 31 24 12.999999999999998 214
leaf_count=13 23 27 31 24 13 214
internal_value=-0.00167027 -0.0233578 0.027691 -0.00515178 -0.0431147 -0.0450113
internal_weight=345 322 82 51 240 227
internal_count=345 322 82 51 240 227
is_linear=0
shrinkage=0.0515883


Tree=9
num_leaves=7
num_cat=0
split_feature=27 29 10 15 26 44
split_gain=548.653 116.678 64.6325 8.91562 5.02851 4.09007
threshold=5.8754822251521999 4.1640625000000009 0.50000000000000022 0.56250000000000011 1.3466796875000002 300.33392500000008
decision_type=2 2 2 2 2 2
left_child=1 4 3 -3 -1 -5
right_child=-2 2 -4 5 -6 -7
leaf_value=-0.042835698509695597 0.19809814286712579 0.010579146986257908 0.07581667495550562 -0.032638615705103728 0 0
leaf_weight=227 24 14.999999999999998 31 22 12.999999999999998 12.999999999999998
leaf_count=227 24 15 31 22 13 13
internal_value=-0.00120559 -0.0225441 0.0255363 -0.00419232 -0.0410527 -0.0224162
internal_weight=345 321 81 50 240 35
internal_count=345 321 81 50 240 35
is_linear=0
shrinkage=0.0515883


Tree=10
num_leaves=9
num_cat=0
split_feature=26 15 29 10 29 10 15 44
split_gain=735.18 207.73 98.3249 66.4542 15.8763 9.72475 7.7433 3.83049
threshold=3.9248046875000004 3.6953125000000004 4.1640625000000009 0.50000000000000022 1.3671875000000002 0.50000000000000022 0.16406250000000003 300.68973500000004
decision_type=2 2 2 2 2 2 2 2
left_child=2 -2 4 6 -1 -6 -4 -8
right_child=1 -3 3 -5 5 -7 7 -9
leaf_value=-0.046760390734495616 0.31858918308790146 0.010037586573963038 0.0088917221823779004 0.079710826108782024 -0.022206107666368356 0.0038097669262637831 -0.032342643179993052 0
leaf_weight=140 15.000000000000002 12.999999999999998 17 29 57 30 19 12.999999999999998
leaf_count=140 15 13 17 29 57 30 19 13
internal_value=0.00709552 0.225576 -0.0172757 0.0272876 -0.0350965 -0.00866507 -0.00289232 -0.0215638
internal_weight=333 28 305 78 227 87 49 32
internal_count=333 28 305 78 227 87 49 32
is_linear=0
shrinkage=0.0515883


Tree=11
num_leaves=9
num_cat=0
split_feature=26 18 29 10 29 10 15 44
split_gain=688.829 201.588 89.9948 61.3192 14.1464 9.01581 7.23582 3.57799
threshold=3.9248046875000004 301.44636500000007 4.1640625000000009 0.50000000000000022 1.3671875000000002 0.50000000000000022 0.16406250000000003 300.68973500000004
decision_type=2 2 2 2 2 2 2 2
left_child=2 -2 4 6 -1 -6 -4 -8
right_child=1 -3 3 -5 5 -7 7 -9
leaf_value=-0.044493020940667684 0.014504368194664543 0.31653163145157143 0.0085911992620431865 0.076568330335231846 -0.021215970125660649 0.0036583820290716435 -0.031208348314478919 0
leaf_weight=140 14.000000000000002 13.999999999999998 17 29 57 30 19 12.999999999999998
leaf_count=140 14 14 17 29 57 30 19 13
internal_value=0.00723739 0.218721 -0.0163144 0.026191 -0.0334134 -0.00804597 -0.00247983 -0.0207896
internal_weight=333 28 305 78 227 87 49 32
internal_count=333 28 305 78 227 87 49 32
is_linear=0
shrinkage=0.0515883


Tree=12
num_leaves=8
num_cat=1
split_feature=27 79 29 22 14 29 60
split_gain=580.512 92.804 87.8719 22.2271 28.5925 9.84442 3.91166
threshold=5.8754822251521999 0 3.8046875000000004 5872.134500000001 4.2929687500000009 2.3437500000000004 5828.3192000000008
decision_type=2 1 2 2 2 2 2
left_child=1 2 5 4 6 -1 -4
right_child=-2 -3 3 -5 -6 -7 -8
leaf_value=-0.028003260338286748 0.21058223443363186 -0.056463556800169463 0.0087014511573450838 0 0 0 0.092004195840900527
leaf_weight=107 24 96 19 12.999999999999998 13.999999999999998 35 28
leaf_count=107 24 96 19 13 14 35 28
internal_value=0.00332994 -0.0165291 0.000604977 0.0451665 0.0571388 -0.0207072 0.0737692
internal_weight=336 312 216 74 61 142 47
internal_count=336 312 216 74 61 142 47
cat_boundaries=0 1
cat_threshold=1
is_linear=0
shrinkage=0.0515883


Tree=13
num_leaves=6
num_cat=1
split_feature=27 79 29 17 29
split_gain=536.409 84.7612 80.8099 20.4091 9.01484
threshold=5.8754822251521999 0 3.8046875000000004 0.039062500000000007 2.3437500000000004
decision_type=2 1 2 2 2
left_child=1 2 4 -4 -1
right_child=-2 -3 3 -5 -6
leaf_value=-0.026670109735075227 0.2026690570243308 -0.053799055737050419 0 0.063731280008048743 0
leaf_weight=107 24 96 31 43 35
leaf_count=107 24 96 31 43 35
internal_value=0.00342288 -0.0156169 0.000663434 0.0434615 -0.0196832
internal_weight=336 312 216 74 142
internal_count=336 312 216 74 142
cat_boundaries=0 1
cat_threshold=1
is_linear=0
shrinkage=0.0515883


Tree=14
num_leaves=8
num_cat=2
split_feature=26 29 79 66 16 27 79
split_gain=656.447 83.8502 55.9405 22.0707 17.5596 10.4772 1.78528
threshold=4.717773375000001 3.8046875000000004 0 5857.8514791666666 2.2460937500000004 0.61718750000001876 1
decision_type=2 2 1 2 2 2 1
left_child=1 5 3 4 -3 -1 -7
right_child=-2 2 -4 -5 -6 6 -8
leaf_value=-0.039291664848407591 0.22435961281940248 0.074791069290249521 -0.031989501728803785 0 0 0 -0.019471173646454887
leaf_weight=151 25 42 19 17 12.999999999999998 69 12.999999999999998
leaf_count=151 25 42 19 17 13 69 13
internal_value=0.00757328 -0.0132787 0.0243459 0.0470925 0.0610392 -0.0303334 -0.00626515
internal_weight=349 324 91 72 55 233 82
internal_count=349 324 91 72 55 233 82
cat_boundaries=0 1 2
cat_threshold=1 1
is_linear=0
shrinkage=0.0515883


Tree=15
num_leaves=9
num_cat=0
split_feature=26 29 16 74 11 27 10 26
split_gain=607.309 76.247 31.9025 22.7512 10.1059 8.71547 6.02378 3.89295
threshold=4.717773375000001 3.8046875000000004 0.011718750000000002 0.051359947181258532 1.0000000180025095e-35 0.61718750000001876 0.50000000000000022 2.1445312500000004
decision_type=2 2 2 2 2 2 2 2
left_child=1 5 3 -3 -4 -1 -7 -6
right_child=-2 2 4 -5 7 6 -8 -9
leaf_value=-0.037378074185318612 0.21583610418755489 0 -0.021996906357846374 0.089199442869127399 0 -0.01783472050088699 0.0011701982262074795 0.025433833607312197
leaf_weight=151 25 14.000000000000002 24 15.999999999999998 12.999999999999998 52 30 24
leaf_count=151 25 14 24 16 13 52 30 24
internal_value=0.00729134 -0.0127127 0.0230383 0.0595143 0 -0.0290144 -0.00612157 0.0154395
internal_weight=349 324 91 30 61 233 82 37
internal_count=349 324 91 30 61 233 82 37
is_linear=0
shrinkage=0.0515883


Tree=16
num_leaves=8
num_cat=1
split_feature=27 79 29 18 16 27 77
split_gain=502.896 78.8533 82.2674 41.2661 28.2145 5.98248 1.28892
threshold=9.7324296401008983 0 3.8046875000000004 304.52173000000005 1.7617187500000002 0.49931750916771173 3.867525000000001
decision_type=2 1 2 2 2 2 2
left_child=1 2 5 4 -4 -1 -7
right_child=-2 -3 3 -5 -6 6 -8
leaf_value=-0.028904668840603581 0.23201505956457508 -0.04977505802099623 0.079978448031060925 0 0 -0.0077211160201638594 0
leaf_weight=74 14.999999999999998 96 46 25 14.999999999999998 50 32
leaf_count=74 15 96 46 25 15 50 32
internal_value=0.00236241 -0.0121534 0.00208217 0.0418843 0.0628598 -0.0180035 -0.000960802
internal_weight=353 338 242 86 61 156 82
internal_count=353 338 242 86 61 156 82
cat_boundaries=0 1
cat_threshold=1
is_linear=0
shrinkage=0.0515883


Tree=17
num_leaves=9
num_cat=1
split_feature=27 79 27 16 55 31 27 16
split_gain=470.415 71.432 69.946 34.1855 56.9251 8.80929 2.92448 1.49896
threshold=9.7324296401008983 0 1.3688128266900275 1.6250000000000002 4.846800884899646 2.6100501700796843 0.49931750916771173 5.2851562500000009
decision_type=2 1 2 2 2 2 2 2
left_child=1 2 6 4 5 -4 -1 -5
right_child=-2 -3 3 7 -6 -7 -8 -9
leaf_value=-0.027574384512167295 0.2245181126406614 -0.047426185820165959 0.022419514742777251 -0.013567289370646133 0 0.12099669147798242 -0.00135112538922433 0
leaf_weight=74 14.999999999999998 96 26 13.000000000000002 33 17 66 12.999999999999998
leaf_count=74 15 96 26 13 33 17 66 13
internal_value=0.00238296 -0.0116145 0.00184494 0.034438 0.0511798 0.0848508 -0.0192898 -0.00120537
internal_weight=353 338 242 102 76 43 140 26
internal_count=353 338 242 102 76 43 140 26
cat_boundaries=0 1
cat_threshold=1
is_linear=0
shrinkage=0.0515883


Tree=18
num_leaves=9
num_cat=0
split_feature=27 27 11 74 21 16 57 26
split_gain=351.226 66.3795 28.6347 45.0074 31.2933 18.0517 23.4701 3.73987
threshold=9.7324296401008983 1.3400582462882116 1.0000000180025095e-35 0.051359947181258532 300.26420500000006 2.3437500000000004 315.15632000000005 0.71484375000000011
decision_type=2 2 2 2 2 2 2 2
left_child=1 7 4 -4 -3 6 -5 -1
right_child=-2 2 3 5 -6 -7 -8 -9
leaf_value=-0.030466322181821253 0.18426630915365189 0.032725469138389793 -0.0070979016765551186 0.090411715731926676 -0.037792634441638648 0 0 0
leaf_weight=176 18 13.999999999999998 25 33 34 13.999999999999998 12.999999999999998 29
leaf_count=176 18 14 25 33 34 14 13 29
internal_value=0.00407923 -0.00862457 0.0169436 0.0348835 -0.00680378 0.0580563 0.0714396 -0.0274929
internal_weight=356 338 133 85 48 60 46 205
internal_count=356 338 133 85 48 60 46 205
is_linear=0
shrinkage=0.0515883


Tree=19
num_leaves=8
num_cat=1
split_feature=27 79 29 15 67 27 16
split_gain=326.832 70.8024 83.8584 34.0785 27.1688 8.21804 2.9901
threshold=9.7324296401008983 0 4.1640625000000009 4.6796875000000009 13.343669848643858 0.49931750916771173 0.62890625000000011
decision_type=2 1 2 2 2 2 2
left_child=1 2 5 4 -4 -1 -6
right_child=-2 -3 3 -5 6 -7 -8
leaf_value=-0.024767224457893987 0.17791683829264532 -0.043885961999584375 0 0 0.097519145543217972 0 0.0026040565326316428
leaf_weight=77 18 97 13.999999999999998 20 30 87 12.999999999999998
leaf_count=77 18 97 14 20 30 87 13
internal_value=0.00408855 -0.00812159 0.00538991 0.048189 0.0663451 -0.013356 0.0835452
internal_weight=356 338 241 77 57 164 43
internal_count=356 338 241 77 57 164 43
cat_boundaries=0 1
cat_threshold=1
is_linear=0
shrinkage=0.0515883


Tree=20
num_leaves=8
num_cat=0
split_feature=27 14 14 15 10 27 43
split_gain=127.464 120.092 181.563 31.5659 18.1063 12.8689 9.45607
threshold=2.7251684824704672 5.0625000000000009 1.5703125000000002 0.16406250000000003 0.50000000000000022 0.66510686367523253 1.769322436758429
decision_type=2 2 2 2 2 2 2
left_child=4 2 3 -2 6 -6 -1
right_child=1 -3 -4 -5 5 -7 -8
leaf_value=0 0.055685067428544392 -0.021767316310611715 0.21583277818006441 -0.020351371096763611 -0.016648861131387766 0.017959174306298828 -0.031827195211016152
leaf_weight=15.999999999999998 14.999999999999998 23 12.999999999999998 19 53 44 166
leaf_count=16 15 23 13 19 53 44 166
internal_value=-0.00185019 0.0547426 0.0983396 0.00652189 -0.0189922 0 -0.0282187
internal_weight=349 70 47 34 279 97 182
internal_count=349 70 47 34 279 97 182
is_linear=0
shrinkage=0.0515883


Tree=21
num_leaves=9
num_cat=0
split_feature=29 15 14 14 10 29 42 51
split_gain=115.102 102.996 108.82 95.549 14.1998 10.0649 8.87822 2.85905
threshold=5.2070312500000009 6.7382812500000009 5.0625000000000009 1.7265625000000002 0.50000000000000022 1.5078125000000002 302.17955625000008 2.192899819528519
decision_type=2 2 2 2 2 2 2 2
left_child=4 2 3 6 7 -6 -2 -1
right_child=1 -3 -4 -5 5 -7 -8 -9
leaf_value=0 0 -0.039263597091434219 -0.0040263079864570166 0.2080812844748556 -0.016098946099871642 0.014686994889952964 0.050514755122992978 -0.029417893261589851
leaf_weight=17 17 14.999999999999998 19 12.999999999999998 52 42 14.999999999999998 159
leaf_count=17 17 15 19 13 52 42 15 159
internal_value=-0.00147235 0.0485331 0.0780467 0.116604 -0.0189286 0 0.0302546 -0.0272896
internal_weight=349 79 64 45 270 94 32 176
internal_count=349 79 64 45 270 94 32 176
is_linear=0
shrinkage=0.0515883


Tree=22
num_leaves=10
num_cat=1
split_feature=30 79 27 15 56 30 65 20 27
split_gain=207.717 60.7403 54.558 41.7822 19.7886 18.314 6.47343 2.48646 1.7048
threshold=3.5524902343750004 0 1.1713125654710492 0.27343750000000006 297.62465000000003 1.9575195312500098 5879.9885000000004 301.10303000000005 0.49931750916771173
decision_type=2 1 2 2 2 2 2 2 2
left_child=1 2 8 5 -5 7 -6 -4 -1
right_child=-2 -3 3 4 6 -7 -8 -9 -10
leaf_value=-0.021114385946601429 0.13801709629057471 -0.041212312368155146 0 -0.03868941428324886 0.031430216503137633 0.10120086452335275 0 0.0264003242206272 0
leaf_weight=75 19 96 22 15.999999999999998 24 17 13.999999999999998 17 55
leaf_count=75 19 96 22 16 24 17 14 17 55
internal_value=0.0017718 -0.00790792 0.00446947 0.0314006 0 0.0593117 0.0180643 0.0154653 -0.0153849
internal_weight=355 336 240 110 54 56 38 39 130
internal_count=355 336 240 110 54 56 38 39 130
cat_boundaries=0 1
cat_threshold=1
is_linear=0
shrinkage=0.0515883


Tree=23
num_leaves=8
num_cat=1
split_feature=26 15 79 27 74 16 27
split_gain=195.159 183.46 32.7022 26.5162 24.641 5.02052 1.61922
threshold=3.1572265625000004 4.6796875000000009 0 1.1713125654710492 0.051337000655476785 1.5195312500000002 0.49931750916771173
decision_type=2 2 1 2 2 2 2
left_child=2 -2 3 6 -5 -6 -1
right_child=1 -3 -4 4 5 -7 -8
leaf_value=-0.020141236079723936 0.1709663678589467 -0.014663413679631804 -0.035394624817950686 -0.010594362180715463 0.043326637334350687 0 0
leaf_weight=75 24 14.999999999999998 93 22 53 15.999999999999998 57
leaf_count=75 24 15 93 22 53 16 57
internal_value=0.00185871 0.10005 -0.0111897 0 0.0202099 0.0363382 -0.0145273
internal_weight=355 39 316 223 91 69 132
internal_count=355 39 316 223 91 69 132
cat_boundaries=0 1
cat_threshold=1
is_linear=0
shrinkage=0.0515883


Tree=24
num_leaves=8
num_cat=1
split_feature=26 15 14 79 29 21 20
split_gain=164.952 206.668 209.859 18.9714 16.6452 10.1337 4.69877
threshold=2.7949218750000195 4.6796875000000009 4.2929687500000009 0 2.3437500000000004 300.55018000000007 304.18544000000003
decision_type=2 2 2 1 2 2 2
left_child=3 2 -2 4 -1 -6 -7
right_child=1 -3 -4 -5 5 6 -8
leaf_value=-0.014906805334725859 0.23860352248715472 -0.027706515010338491 0 -0.032149317406658627 0.033471500654878132 -0.013473006454858058 0.012862628427819793
leaf_weight=122 17 20 15.999999999999998 87 29 29 25
leaf_count=122 17 20 16 87 29 29 25
internal_value=0.00168274 0.0794436 0.147995 -0.0127634 -0.00127029 0.0130027 0
internal_weight=345 53 33 292 205 83 54
internal_count=345 53 33 292 205 83 54
cat_boundaries=0 1
cat_threshold=1
is_linear=0
shrinkage=0.0515883


Tree=25
num_leaves=9
num_cat=1
split_feature=26 15 14 79 27 16 21 27
split_gain=152.558 193.791 195.89 17.3175 14.9721 14.0005 5.13509 1.7506
threshold=2.7949218750000195 4.6796875000000009 6.2460937500000009 0 1.3688128266900275 1.6250000000000002 303.60235500000005 0.49931750916771173
decision_type=2 2 2 1 2 2 2 2
left_child=3 2 -2 4 7 6 -6 -1
right_child=1 -3 -4 -5 5 -7 -8 -9
leaf_value=-0.018504954999544503 0.21827475834792662 -0.026719006305069886 0 -0.030645464637229961 0.041193260449126433 -0.0059397976937893091 0 0
leaf_weight=70 20 20 12.999999999999998 87 31 14.999999999999998 17 72
leaf_count=70 20 20 13 87 31 15 17 72
internal_value=0.00171364 0.0765272 0.143006 -0.0121267 -0.00104915 0.0156873 0.0308279 -0.0121751
internal_weight=345 53 33 292 205 63 48 142
internal_count=345 53 33 292 205 63 48 142
cat_boundaries=0 1
cat_threshold=1
is_linear=0
shrinkage=0.0515883


Tree=26
num_leaves=9
num_cat=1
split_feature=27 79 29 67 14 67 16 27
split_gain=359.004 32.6594 29.5658 20.6343 17.2421 8.94684 6.23568 2.81021
threshold=9.5604283671280861 0 4.1640625000000009 13.466419376551984 4.9570312500000009 11.023253205778053 0.011718750000000002 0.49931750916771173
decision_type=2 1 2 2 2 2 2 2
left_child=1 2 7 5 6 -4 -5 -1
right_child=-2 -3 3 4 -6 -7 -8 -9
leaf_value=-0.017529512679207045 0.18999614926875524 -0.032331608178559748 0.014832256619057765 0.078363956645677427 0 -0.028593470582852276 0 0
leaf_weight=75 17 98 14.000000000000002 20 14.999999999999998 13.999999999999998 14.999999999999998 89
leaf_count=75 17 98 14 20 15 14 15 89
internal_value=0.00409576 -0.00844413 0.00010589 0.0263502 0.0442235 0 0.0605586 -0.0102913
internal_weight=357 340 242 78 50 28 35 164
internal_count=357 340 242 78 50 28 35 164
cat_boundaries=0 1
cat_threshold=1
is_linear=0
shrinkage=0.0515883


Tree=27
num_leaves=9
num_cat=0
split_feature=29 29 11 74 16 66 10 59
split_gain=279.617 27.0079 19.7058 26.5569 21.5871 3.56391 2.32777 1.01383
threshold=12.574218750000002 4.1640625000000009 1.0000000180025095e-35 0.051337000655476785 1.7617187500000002 5844.7762250000005 0.50000000000000022 4.7205649229616604
decision_type=2 2 2 2 2 2 2 2
left_child=1 6 5 -4 -5 -3 7 -1
right_child=-2 2 3 4 -6 -7 -8 -9
leaf_value=0 0.158842392672326 0 -0.00047831409599365105 0.071304358980517846 0 -0.021034585934018659 -0.0025054936447827221 -0.023712686753500693
leaf_weight=12.999999999999998 20 12.999999999999998 19 29 12.999999999999998 20 89 141
leaf_count=13 20 13 19 29 13 20 89 141
internal_value=0.00407865 -0.00757618 0.0123485 0.0304412 0.051569 -0.00890097 -0.0173722 -0.0223802
internal_weight=357 337 94 61 42 33 243 154
internal_count=357 337 94 61 42 33 243 154
is_linear=0
shrinkage=0.0515883


Tree=28
num_leaves=8
num_cat=1
split_feature=27 79 29 16 13 33 27
split_gain=275.514 55.8553 81.5618 33.3321 24.0441 9.55021 2.06031
threshold=9.7766223224966247 0 3.8046875000000004 1.7617187500000002 -0.92260537345623006 7.3671875000000009 0.61376155343214822
decision_type=2 1 2 2 2 2 2
left_child=1 2 6 4 -4 -6 -1
right_child=-2 -3 3 -5 5 -7 -8
leaf_value=-0.014934634198753533 0.18534564733560432 -0.035624715203907677 0 0 0.026262513582863627 0.12252158158853015 0
leaf_weight=85 12.999999999999998 92 12.999999999999998 18 31 15.999999999999998 71
leaf_count=85 13 92 13 18 31 16 71
internal_value=0.00805385 -0.00233177 0.00959282 0.0507511 0.0673401 0.0820493 -0.00968478
internal_weight=339 326 234 78 60 47 156
internal_count=339 326 234 78 60 47 156
cat_boundaries=0 1
cat_threshold=1
is_linear=0
shrinkage=0.0515883


Tree=29
num_leaves=7
num_cat=0
split_feature=26 18 29 16 18 10
split_gain=229.459 202.837 33.0534 26.7646 4.27951 3.86233
threshold=4.717773375000001 301.44636500000007 3.8046875000000004 1.7617187500000002 304.67242000000005 1.0000000180025095e-35
decision_type=2 2 2 2 2 2
left_child=2 -2 -1 4 5 -4
right_child=1 -3 3 -5 -6 -7
leaf_value=-0.015758345717673351 0 0.23051128669434506 0 -0.0097489317093052905 0 0.060682158871457087
leaf_weight=228 13.000000000000002 12.999999999999998 20 26 13.999999999999998 25
leaf_count=228 13 13 20 26 14 25
internal_value=0.00795939 0.13388 -0.00442542 0.0194201 0.0389983 0.0461157
internal_weight=339 26 313 85 59 45
internal_count=339 26 313 85 59 45
is_linear=0
shrinkage=0.0515883


Tree=30
num_leaves=9
num_cat=0
split_feature=27 71 27 31 39 38 30 20
split_gain=151.472 20.0272 31.0669 9.35838 5.11492 2.61027 2.19306 1.81848
threshold=9.7766223224966247 18.484083636871848 2.7251684824704672 6.7889099229856065 2.4347945911551911 0.82096354166666685 1.0244140625000082 302.01917500000008
decision_type=2 2 2 2 2 2 2 2
left_child=1 2 6 4 5 -3 -1 -6
right_child=-2 3 -4 -5 7 -7 -8 -9
leaf_value=-0.010056577396046916 0.13231572288559776 -0.017416253284619328 0.049679408023799443 -0.057765402792053042 0.012749548395410612 0 0 -0.0023179815900606802
leaf_weight=69 12.999999999999998 127 25 12.999999999999998 20 15.999999999999998 49 15.999999999999998
leaf_count=69 13 127 25 13 20 16 49 16
internal_value=0 -0.00740543 0.00455497 -0.0185315 -0.0104888 -0.0150222 -0.00401533 0
internal_weight=348 335 143 192 179 143 118 36
internal_count=348 335 143 192 179 143 118 36
is_linear=0
shrinkage=0.0515883


Tree=31
num_leaves=10
num_cat=1
split_feature=27 79 26 67 27 15 16 74 15
split_gain=142.166 37.9448 29.8577 25.8896 4.63603 5.36438 5.97963 4.83984 3.69223
threshold=9.7766223224966247 0 2.1445312500000004 11.822370327130619 0.49931750916771173 0.67968750000000011 0.19531250000000003 0.051288434528760106 0.76953125000000011
decision_type=2 1 2 2 2 2 2 2 2
left_child=1 2 4 -4 -1 6 7 -6 -5
right_child=-2 -3 3 8 5 -7 -8 -9 -10
leaf_value=-0.01458482027555221 0.12827270738276136 -0.03371002915483147 0 0.078574514557836955 0 -0.012749122669769151 0 0.026907798453016486 0.0016434125841690704
leaf_weight=74 12.999999999999998 94 13.999999999999998 15.999999999999998 12.999999999999998 38 28 40 18
leaf_count=74 13 94 14 16 13 38 28 40 18
internal_value=0 -0.00707593 0.00220831 0.0363808 -0.00512601 0 0.00859545 0.0190831 0.0579594
internal_weight=348 335 241 48 193 119 81 53 34
internal_count=348 335 241 48 193 119 81 53 34
cat_boundaries=0 1
cat_threshold=1
is_linear=0
shrinkage=0.0515883


Tree=32
num_leaves=7
num_cat=1
split_feature=80 27 29 27 11 27
split_gain=239.489 459.155 63.3102 46.0168 26.7525 1.48957
threshold=0 5.8754822251521999 3.0117187500000004 1.3023552338359536 1.0000000180025095e-35 0.61376155343214822
decision_type=1 2 2 2 2 2
left_child=2 3 5 -2 -5 -1
right_child=1 -3 -4 4 -6 -7
leaf_value=-0.013494407099215695 -0.015204469667276755 0.25336909456528872 -0.082960211541862325 0 0.057189904345349381 0
leaf_weight=85 63 17 46 25 51 43
leaf_count=85 63 17 46 25 51 43
internal_value=0.00551122 0.0499435 -0.0330909 0.0113442 0.0383406 -0.00979668
internal_weight=330 156 174 139 76 128
internal_count=330 156 174 139 76 128
cat_boundaries=0 1
cat_threshold=2
is_linear=0
shrinkage=0.0515883


Tree=33
num_leaves=6
num_cat=2
split_feature=80 79 29 29 27
split_gain=221.615 548.321 224.542 57.4561 1.36693
threshold=0 1 8.9199217500000021 3.0117187500000004 0.49931750916771173
decision_type=1 1 2 2 2
left_child=3 2 -2 4 -1
right_child=1 -3 -4 -5 -6
leaf_value=-0.013990075734039627 0.061676573553165963 -0.029703017833419301 0.28418123589069472 -0.079377389860959199 0
leaf_weight=71 50 88 18 46 57
leaf_count=71 50 88 18 46 57
internal_value=0.00531292 0.0480957 0.153072 -0.0317639 -0.0093646
internal_weight=330 156 68 174 128
internal_count=330 156 68 174 128
cat_boundaries=0 1 2
cat_threshold=2 1
is_linear=0
shrinkage=0.0515883


Tree=34
num_leaves=6
num_cat=1
split_feature=79 27 29 11 74
split_gain=63.8863 114.306 18.0038 14.6734 12.3344
threshold=0 4.3410206250529315 2.3437500000000004 1.0000000180025095e-35 0.051518439739115039
decision_type=1 2 2 2 2
left_child=1 2 -1 -4 -5
right_child=-2 -3 3 4 -6
leaf_value=-0.010298090582970846 -0.030884207293387336 0.10461375251263322 -0.0017205299473128438 0 0.041698493664471002
leaf_weight=121 99 25 26 24 52
leaf_count=121 99 25 26 24 52
internal_value=0.000962566 0.0161947 0.00053919 0.0175573 0.0293444
internal_weight=347 248 223 102 76
internal_count=347 248 223 102 76
cat_boundaries=0 1
cat_threshold=1
is_linear=0
shrinkage=0.0515883


Tree=35
num_leaves=5
num_cat=2
split_feature=80 79 29 29
split_gain=159.06 449.942 105.343 58.1302
threshold=0 1 6.5468750000000009 3.0117187500000004
decision_type=1 1 2 2
left_child=3 2 -2 -1
right_child=1 -3 -4 -5
leaf_value=-0.0094293507903558411 0.045306405140446676 -0.029423014710142404 0.20115955337521088 -0.080845307292015958
leaf_weight=135 42 99 29 42
leaf_count=135 42 99 29 42
internal_value=0.000899473 0.0358076 0.130417 -0.030421
internal_weight=347 170 71 177
internal_count=347 170 71 177
cat_boundaries=0 1 2
cat_threshold=2 1
is_linear=0
shrinkage=0.0515883


Tree=36
num_leaves=5
num_cat=2
split_feature=80 79 29 29
split_gain=159.923 489.823 214.97 42.1699
threshold=0 1 9.9609375000000018 3.0117187500000004
decision_type=1 1 2 2
left_child=3 2 -2 -1
right_child=1 -3 -4 -5
leaf_value=-0.008756949731417071 0.060404050468262825 -0.02727786895707128 0.28529385994483192 -0.071377269617261901
leaf_weight=133 54 101 13.999999999999998 41
leaf_count=133 54 101 14 41
internal_value=0.00446835 0.0391074 0.140796 -0.0274316
internal_weight=343 169 68 174
internal_count=343 169 68 174
cat_boundaries=0 1 2
cat_threshold=2 1
is_linear=0
shrinkage=0.0515883


Tree=37
num_leaves=5
num_cat=2
split_feature=80 79 27 27
split_gain=149.013 455.15 202.941 39.0701
threshold=0 1 5.2285896458803185 1.3400582462882116
decision_type=1 1 2 2
left_child=3 2 -2 -1
right_child=1 -3 -4 -5
leaf_value=-0.0075827537676366793 0.057730873217300346 -0.025985177409797097 0.2763149870881777 -0.066924551042537639
leaf_weight=130 54 101 13.999999999999998 44
leaf_count=130 54 101 14 44
internal_value=0.00440829 0.037872 0.135931 -0.0263377
internal_weight=343 169 68 174
internal_count=343 169 68 174
cat_boundaries=0 1 2
cat_threshold=2 1
is_linear=0
shrinkage=0.0515883


Tree=38
num_leaves=8
num_cat=0
split_feature=26 14 11 74 26 31 78
split_gain=85.1625 136.532 8.84608 13.3882 17.7911 5.4181 2.51516
threshold=3.6230468750000004 5.1289062500000009 1.0000000180025095e-35 0.051318222411569803 0.79882812500000655 2.1663019187904156 -23.561699999999743
decision_type=2 2 2 2 2 2 2
left_child=2 -2 6 -4 -5 -6 -1
right_child=1 -3 3 4 5 -7 -8
leaf_value=0 0.13635062881057247 -0.026233871700394797 -0.013869531163325921 -0.00075762123337384454 0.0020332720109651186 0.05008993571326726 -0.017482260521565089
leaf_weight=13.999999999999998 22 12.999999999999998 67 63 40 24 106
leaf_count=14 22 13 67 63 40 24 106
internal_value=0.00391612 0.0718881 -0.00394155 0.000775339 0.0124709 0.0306323 -0.0148505
internal_weight=349 35 314 194 127 64 120
internal_count=349 35 314 194 127 64 120
is_linear=0
shrinkage=0.0515883


Tree=39
num_leaves=6
num_cat=2
split_feature=80 79 29 43 27
split_gain=136.723 321.482 95.2423 66.0969 30.6472
threshold=0 1 6.5468750000000009 2.5866746087033574 1.3400582462882116
decision_type=1 1 2 2 2
left_child=4 2 -2 -4 -1
right_child=1 -3 3 -5 -6
leaf_value=-0.0071525066102928027 0.035604359985973118 -0.02120787049605977 0.01843683977010812 0.23010625646559865 -0.05862596366977426
leaf_weight=132 43 93 13.000000000000002 18 50
leaf_count=132 43 93 13 18 50
internal_value=0.00375584 0.0364498 0.11362 0.177487 -0.0246268
internal_weight=349 167 74 31 182
internal_count=349 167 74 31 182
cat_boundaries=0 1 2
cat_threshold=2 1
is_linear=0
shrinkage=0.0515883


Tree=40
num_leaves=5
num_cat=2
split_feature=80 79 27 27
split_gain=141.228 377.264 146.243 36.9714
threshold=0 1 4.3410206250529315 2.2398638459716622
decision_type=1 1 2 2
left_child=3 2 -2 -1
right_child=1 -3 -4 -5
leaf_value=-0.0097525595314406546 0.05485601364373803 -0.023357498834646068 0.24254124780204958 -0.070710873670935259
leaf_weight=157 56 97 14.999999999999998 34
leaf_count=157 56 97 15 34
internal_value=0.0034567 0.0368902 0.123279 -0.0244822
internal_weight=359 168 71 191
internal_count=359 168 71 191
cat_boundaries=0 1 2
cat_threshold=2 1
is_linear=0
shrinkage=0.0515883


Tree=41
num_leaves=6
num_cat=2
split_feature=80 79 27 27 29
split_gain=131.383 350.358 137.705 33.8082 1.00538
threshold=0 1 4.3410206250529315 2.29527047710146 1.5507812500000002
decision_type=1 1 2 2 2
left_child=3 2 -2 -1 -3
right_child=1 4 -4 -5 -6
leaf_value=-0.0094514280183527408 0.052415976300086722 -0.0045708908427453268 0.23470417230699853 -0.068522821195412587 -0.03455986750917029
leaf_weight=158 56 61 14.999999999999998 33 36
leaf_count=158 56 61 15 33 36
internal_value=0.00338533 0.0356638 0.118949 -0.0235152 -0.0222543
internal_weight=359 168 71 191 97
internal_count=359 168 71 191 97
cat_boundaries=0 1 2
cat_threshold=2 1
is_linear=0
shrinkage=0.0515883


Tree=42
num_leaves=9
num_cat=1
split_feature=78 27 3 26 27 43 26 10
split_gain=37.0719 59.5516 13.43 35.9751 14.3468 12.8495 3.5117 3.93731
threshold=-20.121749999999789 1.4508054195817299 0 4.4667968750000009 1.623831156367024 2.413655353239458 3.1093750000000004 0.50000000000000022
decision_type=2 2 1 2 2 2 2 2
left_child=1 -1 4 6 -2 -6 7 -4
right_child=2 -3 3 -5 5 -7 -8 -9
leaf_value=0 -0.0018283962262537301 0.10101740570859796 -0.013822501251683546 -0.079543308159227152 0 0.054017810199287399 0.0057109909662498475 0
leaf_weight=26 76 14.999999999999998 113 12.999999999999998 14.000000000000002 17 13.999999999999998 59
leaf_count=26 76 15 113 13 14 17 14 59
internal_value=0 0.0414684 -0.00636733 -0.0143975 0.0051439 0.0322381 -0.00465461 -0.00841753
internal_weight=347 41 306 199 107 31 186 172
internal_count=347 41 306 199 107 31 186 172
cat_boundaries=0 1
cat_threshold=46139469
is_linear=0
shrinkage=0.0515883


Tree=43
num_leaves=8
num_cat=1
split_feature=78 26 27 79 29 14 69
split_gain=34.4433 156.467 33.1673 6.67551 4.87889 8.63916 1.51164
threshold=-10.610299999999823 2.9326171875000004 6.3238633751103963 0 4.1640625000000009 3.8046875000000004 5880.266700000001
decision_type=2 2 2 1 2 2 2
left_child=1 -1 3 4 -2 6 -6
right_child=2 -3 -4 -5 5 -7 -8
leaf_value=-0.0021231713752724621 -0.00098937484234773595 0.14848591094913255 -0.07117261311917801 -0.014716367868034297 0.034984173956750041 0 0
leaf_weight=77 118 12.999999999999998 12.999999999999998 75 24 13.999999999999998 12.999999999999998
leaf_count=77 118 13 13 75 24 14 13
internal_value=0 0.026194 -0.00945497 -0.00184918 0.00159033 0.0149006 0.0281081
internal_weight=347 90 257 244 169 51 37
internal_count=347 90 257 244 169 51 37
cat_boundaries=0 1
cat_threshold=1
is_linear=0
shrinkage=0.0515883


Tree=44
num_leaves=5
num_cat=2
split_feature=80 79 29 29
split_gain=73.3657 188.484 42.7268 12.0075
threshold=0 1 5.1171875000000009 6.2460937500000009
decision_type=1 1 2 2
left_child=2 3 -1 -2
right_child=1 -3 -4 -5
leaf_value=-0.0085296048826143233 0.032057789432838033 -0.018570132595184558 -0.076515983522676995 0.11822805422906452
leaf_weight=149 40 104 29 29
leaf_count=149 40 104 29 29
internal_value=-0.000812968 0.0206215 -0.0240447 0.0839069
internal_weight=351 173 178 69
internal_count=351 173 178 69
cat_boundaries=0 1 2
cat_threshold=2 1
is_linear=0
shrinkage=0.0515883


Tree=45
num_leaves=5
num_cat=2
split_feature=80 79 29 29
split_gain=68.0134 174.389 39.2262 10.0817
threshold=0 1 5.1171875000000009 6.2460937500000009
decision_type=1 1 2 2
left_child=2 3 -1 -2
right_child=1 -3 -4 -5
leaf_value=-0.0081145057405212113 0.030706316118695991 -0.017688027870206374 -0.073499440645262107 0.11356706722512087
leaf_weight=149 40 104 29 29
leaf_count=149 40 104 29 29
internal_value=-0.000711174 0.0198744 -0.0231305 0.0807891
internal_weight=351 173 178 69
internal_count=351 173 178 69
cat_boundaries=0 1 2
cat_threshold=2 1
is_linear=0
shrinkage=0.0515883


Tree=46
num_leaves=9
num_cat=2
split_feature=27 4 27 2 20 25 67 39
split_gain=89.7444 13.9788 11.422 8.42708 4.82548 3.56914 3.05968 1.124
threshold=9.7766223224966247 0 0.83711108184730587 1 300.48210000000006 5867.6477000000004 17.27293806292564 2.6148405118997826
decision_type=2 1 2 1 2 2 2 2
left_child=1 2 -1 5 -4 -3 -6 -5
right_child=-2 3 4 7 6 -7 -8 -9
leaf_value=-0.00053859047710693375 0.10225017844444817 -0.025696113702729947 0 -0.0029976682619312087 0.041547650973605625 0 0 0.0082882120477107465
leaf_weight=54 13.999999999999998 90 19 95 28 12.999999999999998 18 21
leaf_count=54 14 90 19 95 28 13 18 21
internal_value=0.00289044 -0.00235912 0.0091365 -0.0107735 0.0240565 -0.0205017 0.0318205 0
internal_weight=352 338 119 219 65 103 46 116
internal_count=352 338 119 219 65 103 46 116
cat_boundaries=0 1 2
cat_threshold=2 184
is_linear=0
shrinkage=0.0515883


Tree=47
num_leaves=5
num_cat=2
split_feature=80 79 27 29
split_gain=118.661 257.285 127.366 36.4205
threshold=0 1 4.3410206250529315 3.0117187500000004
decision_type=1 1 2 2
left_child=3 2 -2 -1
right_child=1 -3 -4 -5
leaf_value=-0.005119432325366071 0.042781818434254361 -0.016180100144676236 0.21393114463576027 -0.059534932159832459
leaf_weight=134 57 96 14.999999999999998 50
leaf_count=134 57 96 15 50
internal_value=0.0028701 0.0334135 0.104132 -0.0232866
internal_weight=352 168 72 184
internal_count=352 168 72 184
cat_boundaries=0 1 2
cat_threshold=2 1
is_linear=0
shrinkage=0.0515883


Tree=48
num_leaves=9
num_cat=1
split_feature=3 29 10 29 57 31 43 29
split_gain=34.9381 108.984 25.0983 26.8393 14.7164 19.0162 1.98143 1.01684
threshold=0 6.6250000000000009 0.50000000000000022 9.7968750000000018 307.68467500000003 1.8841899084487033 1.533102896573898 2.2070312500000004
decision_type=1 2 2 2 2 2 2 2
left_child=1 7 3 6 -4 -6 -2 -1
right_child=2 -3 4 -5 5 -7 -8 -9
leaf_value=-0.0026628737528668536 0 0.1290397443707261 -0.0057114716762928603 -0.077205981643815147 0 0.06598531423288366 -0.0115230280337813 0.0071851782042455714
leaf_weight=60 12.999999999999998 12.999999999999998 35 14.999999999999998 30 12.999999999999998 127 34
leaf_count=60 13 13 35 15 30 13 127 34
internal_value=0.000104564 0.0234794 -0.00966877 -0.0226486 0.00911465 0.0294174 -0.00926217 0
internal_weight=340 107 233 155 78 43 140 94
internal_count=340 107 233 155 78 43 140 94
cat_boundaries=0 1
cat_threshold=62924833
is_linear=0
shrinkage=0.0515883


Tree=49
num_leaves=7
num_cat=2
split_feature=80 79 29 27 26 27
split_gain=66.2433 192.163 62.2299 22.7754 2.3771 1.25769
threshold=0 1 7.3515625000000009 1.3023552338359536 0.55859375000000022 0.49931750916771173
decision_type=1 1 2 2 2 2
left_child=3 2 -2 5 -3 -1
right_child=1 4 -4 -5 -6 -7
leaf_value=-0.0077061837472723977 0.030403555339516986 -0.00040350854699682561 0.15917272909378066 -0.047554603976371033 -0.029485815224155207 0
leaf_weight=76 45 59 19 50 34 57
leaf_count=76 45 59 19 50 34 57
internal_value=0.000134363 0.0244979 0.0901117 -0.0187118 -0.0174447 -0.00345814
internal_weight=340 157 64 183 93 133
internal_count=340 157 64 183 93 133
cat_boundaries=0 1 2
cat_threshold=2 1
is_linear=0
shrinkage=0.0515883


Tree=50
num_leaves=6
num_cat=2
split_feature=80 79 27 27 26
split_gain=110.325 265.239 191.189 25.7527 2.11536
threshold=0 1 4.3410206250529315 1.3400582462882116 0.55859375000000022
decision_type=1 1 2 2 2
left_child=3 2 -2 -1 -3
right_child=1 4 -4 -5 -6
leaf_value=-0.0039587974587502869 0.038010199251658522 -8.4820556160887476e-05 0.23493695561528696 -0.049621810647583642 -0.028394889768019259
leaf_weight=139 59 57 14.999999999999998 52 36
leaf_count=139 59 57 15 52 36
internal_value=0.00507726 0.0346467 0.104809 -0.0195035 -0.0173281
internal_weight=358 167 74 191 93
internal_count=358 167 74 191 93
cat_boundaries=0 1 2
cat_threshold=2 1
is_linear=0
shrinkage=0.0515883


Tree=51
num_leaves=7
num_cat=2
split_feature=80 79 27 27 27 27
split_gain=102.069 248.129 179.41 23.2693 1.69291 0.999258
threshold=0 1 4.3410206250529315 1.3023552338359536 0.7761008727432277 0.49931750916771173
decision_type=1 1 2 2 2 2
left_child=3 2 -2 5 -3 -1
right_child=1 4 -4 -5 -6 -7
leaf_value=-0.0073001641022960879 0.036307548885367649 -8.1038526008762621e-05 0.22734558961438306 -0.047091702699235884 -0.02722166479392215 0
leaf_weight=77 59 57 14.999999999999998 53 36 61
leaf_count=77 59 57 15 53 36 61
internal_value=0.00485105 0.0333318 0.101223 -0.0187343 -0.0168084 -0.00361562
internal_weight=358 167 74 191 93 138
internal_count=358 167 74 191 93 138
cat_boundaries=0 1 2
cat_threshold=2 1
is_linear=0
shrinkage=0.0515883


Tree=52
num_leaves=6
num_cat=2
split_feature=27 80 79 29 27
split_gain=96.554 13.9322 42.4804 2.77923 1.14661
threshold=9.5604283671280861 0 1 2.6445312500000004 0.49931750916771173
decision_type=2 1 1 2 2
left_child=1 3 -3 4 -1
right_child=-2 2 -4 -5 -6
leaf_value=-0.0068078550330627884 0.10154526699516109 0.039712337398278459 -0.0097946216301127136 -0.024013921685638383 0
leaf_weight=73 17 65 91 48 49
leaf_count=73 17 65 91 48 49
internal_value=0.00552092 -0.000618531 0.00841981 -0.0114575 -0.00238763
internal_weight=343 326 156 170 122
internal_count=343 326 156 170 122
cat_boundaries=0 1 2
cat_threshold=2 1
is_linear=0
shrinkage=0.0515883


Tree=53
num_leaves=6
num_cat=1
split_feature=27 80 29 29 27
split_gain=90.2432 12.6776 10.7966 2.44383 1.06258
threshold=9.5604283671280861 0 4.9023437500000009 2.6445312500000004 0.49931750916771173
decision_type=2 1 2 2 2
left_child=1 3 -3 4 -1
right_child=-2 2 -4 -5 -6
leaf_value=-0.0064950010810030743 0.098113233186990945 0 0.026171673623979541 -0.022969741754466089 0
leaf_weight=73 17 106 50 48 49
leaf_count=73 17 106 50 48 49
internal_value=0.00526197 -0.000624745 0.00792147 -0.0110071 -0.00219184
internal_weight=343 326 156 170 122
internal_count=343 326 156 170 122
cat_boundaries=0 1
cat_threshold=2
is_linear=0
shrinkage=0.0515883


Tree=54
num_leaves=7
num_cat=0
split_feature=27 31 10 31 38 83
split_gain=86.2156 9.74503 3.38601 3.27286 1.76991 1.17634
threshold=9.7766223224966247 6.8577018647843149 0.50000000000000022 0.80659778125875914 1.6033528645833435 112.22656250000058
decision_type=2 2 2 2 2 2
left_child=1 2 4 -4 -1 -5
right_child=-2 -3 3 5 -6 -7
leaf_value=-0.0076576545813651659 0.10157617564208542 -0.035319218206993602 0 0.015465114712314456 0 0
leaf_weight=158 12.999999999999998 14.999999999999998 49 57 42 13.999999999999998
leaf_count=158 13 15 49 57 42 14
internal_value=0.001627 -0.00338422 0 0.00552199 -0.00493047 0.012575
internal_weight=348 335 320 120 200 71
internal_count=348 335 320 120 200 71
is_linear=0
shrinkage=0.0515883


Tree=55
num_leaves=8
num_cat=0
split_feature=27 10 38 35 37 63 71
split_gain=81.0131 8.57814 4.32151 4.89731 3.12039 2.71355 3.60573
threshold=9.7766223224966247 0.50000000000000022 1.6033528645833435 2.3899275781179874 2.3906250000000004 27.27091888443254 14.903580036355098
decision_type=2 2 2 2 2 2 2
left_child=1 2 3 -1 -3 6 -6
right_child=-2 4 -4 -5 5 -7 -8
leaf_value=-0.0041673922899779078 0.098472427164951803 0 0 -0.032398415142263805 0 0 0.021650097438530386
leaf_weight=134 12.999999999999998 39 47 34 12.999999999999998 15.999999999999998 52
leaf_count=134 13 39 47 34 13 16 52
internal_value=0.00156018 -0.0032555 -0.0101406 -0.0139693 0.00516932 0.0114295 0.0160174
internal_weight=348 335 215 168 120 81 65
internal_count=348 335 215 168 120 81 65
is_linear=0
shrinkage=0.0515883


Tree=56
num_leaves=6
num_cat=2
split_feature=80 79 29 29 27
split_gain=70.4482 172.849 96.0562 28.916 1.88635
threshold=0 1 9.9609375000000018 5.1171875000000009 0.89922188096913058
decision_type=1 1 2 2 2
left_child=3 2 -2 -1 -3
right_child=1 4 -4 -5 -6
leaf_value=-0.0051586353451600455 0.030707810027771804 0 0.17767837992873511 -0.060905871530150361 -0.025831900569386716
leaf_weight=149 58 61 14.999999999999998 30 34
leaf_count=149 58 61 15 30 34
internal_value=0.00164929 0.0253727 0.0829254 -0.0185485 -0.01508
internal_weight=347 168 73 179 95
internal_count=347 168 73 179 95
cat_boundaries=0 1 2
cat_threshold=2 1
is_linear=0
shrinkage=0.0515883


Tree=57
num_leaves=6
num_cat=2
split_feature=80 79 27 27 27
split_gain=65.2336 161.926 89.9742 26.5016 1.53411
threshold=0 1 5.8754822251521999 3.2025685102023522 0.7761008727432277
decision_type=1 1 2 2 2
left_child=3 2 -2 -1 -3
right_child=1 4 -4 -5 -6
leaf_value=-0.0061082328181172232 0.029335382093729746 0 0.17193717993415714 -0.064025990813881675 -0.024497520326784702
leaf_weight=156 58 60 14.999999999999998 23 35
leaf_count=156 58 60 15 23 35
internal_value=0.0015084 0.0243881 0.0801264 -0.017872 -0.0146441
internal_weight=347 168 73 179 95
internal_count=347 168 73 179 95
cat_boundaries=0 1 2
cat_threshold=2 1
is_linear=0
shrinkage=0.0515883


Tree=58
num_leaves=5
num_cat=2
split_feature=80 79 27 29
split_gain=66.7106 161.888 100.569 30.7658
threshold=0 1 4.3410206250529315 5.1171875000000009
decision_type=1 1 2 2
left_child=3 2 -2 -1
right_child=1 -3 -4 -5
leaf_value=-0.004723355259780195 0.028343580821530143 -0.013638379859900095 0.17668381127766147 -0.06239538026440216
leaf_weight=158 58 97 14.999999999999998 28
leaf_count=158 58 97 15 28
internal_value=0.00170041 0.0247891 0.0807033 -0.0174611
internal_weight=356 170 73 186
internal_count=356 170 73 186
cat_boundaries=0 1 2
cat_threshold=2 1
is_linear=0
shrinkage=0.0515883


Tree=59
num_leaves=6
num_cat=2
split_feature=80 79 27 27 26
split_gain=62.2752 150.96 94.1529 28.027 1.04342
threshold=0 1 4.3410206250529315 3.2025685102023522 0.41406250000000006
decision_type=1 1 2 2 2
left_child=3 2 -2 -1 -3
right_child=1 4 -4 -5 -6
leaf_value=-0.0057046543289290064 0.027076820299265062 0 0.17097474127719237 -0.065880742060071371 -0.020980751531700322
leaf_weight=165 58 59 14.999999999999998 21 38
leaf_count=165 58 59 15 21 38
internal_value=0.00163286 0.0239779 0.078 -0.0168335 -0.0129942
internal_weight=356 170 73 186 97
internal_count=356 170 73 186 97
cat_boundaries=0 1 2
cat_threshold=2 1
is_linear=0
shrinkage=0.0515883


Tree=60
num_leaves=7
num_cat=1
split_feature=80 26 29 11 29 74
split_gain=51.3492 102.554 10.5448 6.96727 9.45551 5.67096
threshold=0 4.932128875000001 3.7265625000000004 1.0000000180025095e-35 2.9062500000000004 0.051387200874665202
decision_type=1 2 2 2 2 2
left_child=2 3 -1 -2 -5 -6
right_child=1 -3 -4 4 5 -7
leaf_value=-0.0035073485895705009 -0.001694008994370457 0.12710501010616557 -0.037409500770472108 0 0 0.033844329551582633
leaf_weight=139 66 13.999999999999998 41 36 12.999999999999998 47
leaf_count=139 66 14 41 36 13 47
internal_value=0.00277974 0.0224226 -0.0144365 0.00567271 0.0150681 0.0266566
internal_weight=356 176 180 162 96 60
internal_count=356 176 180 162 96 60
cat_boundaries=0 1
cat_threshold=2
is_linear=0
shrinkage=0.0515883


Tree=61
num_leaves=4
num_cat=0
split_feature=14 27 27
split_gain=40.4168 194.132 2.60879
threshold=6.2460937500000009 5.8754822251521999 2.4523836264377281
decision_type=2 2 2
left_child=1 2 -1
right_child=-2 -3 -4
leaf_value=-0.0036340575166768216 -0.054987613489605819 0.1537072921815068 0.0072264063959804883
leaf_weight=269 19 13.999999999999998 54
leaf_count=269 19 14 54
internal_value=0.00260488 0.00859125 -0.000212438
internal_weight=356 337 323
internal_count=356 337 323
is_linear=0
shrinkage=0.0515883


Tree=62
num_leaves=6
num_cat=1
split_feature=80 27 14 0 27
split_gain=31.1522 35.8188 34.6271 27.9463 19.177
threshold=0 2.3877257629569004 4.9570312500000009 299.09181000000007 2.6770264614246337
decision_type=1 2 2 2 2
left_child=4 -2 3 -3 -1
right_child=1 2 -4 -5 -6
leaf_value=-0.0038387520678380819 0 0 0 0.094788630841552993 -0.051543445363037656
leaf_weight=159 111 13.999999999999998 12.999999999999998 25 26
leaf_count=159 111 14 13 25 26
internal_value=0 0.0149733 0.0476684 0.0693564 -0.01437
internal_weight=348 163 52 39 185
internal_count=348 163 52 39 185
cat_boundaries=0 1
cat_threshold=2
is_linear=0
shrinkage=0.0515883


Tree=63
num_leaves=6
num_cat=1
split_feature=14 81 79 27 15
split_gain=18.0367 32.0176 4.97223 5.60883 15.1692
threshold=6.2460937500000009 38.046875000000107 0 2.4523836264377281 0.38867187500000006
decision_type=2 2 1 2 2
left_child=1 2 3 -1 -5
right_child=-2 -3 -4 4 -6
leaf_value=-0.00016737246582604633 -0.043839752666706866 0.055789471337070129 -0.011302089545894022 0.040598918993304478 0
leaf_weight=179 14.999999999999998 19 91 25 19
leaf_count=179 15 19 91 25 19
internal_value=0 0.00240352 -0.000782382 0.00169126 0.0171566
internal_weight=348 333 314 223 44
internal_count=348 333 314 223 44
cat_boundaries=0 1
cat_threshold=1
is_linear=0
shrinkage=0.0515883


Tree=64
num_leaves=6
num_cat=1
split_feature=14 31 79 27 15
split_gain=51.4459 174.196 5.06702 8.85236 8.2459
threshold=6.2460937500000009 6.9099073276036416 0 2.4523836264377281 0.38867187500000006
decision_type=2 2 1 2 2
left_child=1 2 3 -1 -5
right_child=-2 -3 -4 4 -6
leaf_value=-0.00031097343583172074 -0.064460725705894478 0.14304334228249094 -0.010759488343158168 0.037275830906505332 0
leaf_weight=166 18 14.999999999999998 93 25 18
leaf_count=166 18 15 93 25 18
internal_value=0.00207186 0.00900262 -2.11634e-05 0.00277891 0.0220361
internal_weight=335 317 302 209 43
internal_count=335 317 302 209 43
cat_boundaries=0 1
cat_threshold=1
is_linear=0
shrinkage=0.0515883


Tree=65
num_leaves=4
num_cat=0
split_feature=14 27 27
split_gain=47.9692 164.406 1.62338
threshold=6.2460937500000009 5.8754822251521999 2.4523836264377281
decision_type=2 2 2
left_child=1 2 -1
right_child=-2 -3 -4
leaf_value=-0.0028078714775486356 -0.062239522088666011 0.14510191172761652 0.00605459888206469
leaf_weight=251 18 12.999999999999998 53
leaf_count=251 18 13 53
internal_value=0.00194212 0.00868207 0
internal_weight=335 317 304
internal_count=335 317 304
is_linear=0
shrinkage=0.0515883


Tree=66
num_leaves=6
num_cat=2
split_feature=80 79 27 31 27
split_gain=43.3751 119.691 86.6461 25.0256 1.84316
threshold=0 1 5.8754822251521999 4.1934841969204246 1.2328437848322942
decision_type=1 1 2 2 2
left_child=3 2 -2 -1 -3
right_child=1 4 -4 -5 -6
leaf_value=-0.0049088413662074816 0.020736430217028052 0 0.16293374651891518 -0.067211742682602382 -0.023234657641517699
leaf_weight=167 54 66 12.999999999999998 14.999999999999998 29
leaf_count=167 54 66 13 15 29
internal_value=0.000470725 0.0199438 0.0706548 -0.0147201 -0.0122431
internal_weight=344 162 67 182 95
internal_count=344 162 67 182 95
cat_boundaries=0 1 2
cat_threshold=2 1
is_linear=0
shrinkage=0.0515883


Tree=67
num_leaves=6
num_cat=2
split_feature=80 79 27 33 27
split_gain=40.4142 112.704 81.3218 22.6321 1.56362
threshold=0 1 5.8754822251521999 16.164062250000004 1.2328437848322942
decision_type=1 1 2 2 2
left_child=3 2 -2 -1 -3
right_child=1 4 -4 -5 -6
leaf_value=-0.0051045661161267441 0.019818739959765276 0 0.15795517013686114 -0.067005613468960779 -0.022318659646150388
leaf_weight=169 54 66 12.999999999999998 12.999999999999998 29
leaf_count=169 54 66 13 13 29
internal_value=0.000363127 0.0192128 0.0684554 -0.0142508 -0.0119087
internal_weight=344 162 67 182 95
internal_count=344 162 67 182 95
cat_boundaries=0 1 2
cat_threshold=2 1
is_linear=0
shrinkage=0.0515883


Tree=68
num_leaves=6
num_cat=1
split_feature=14 30 79 15 37
split_gain=46.2917 93.504 4.14113 2.89469 5.01318
threshold=6.2460937500000009 3.4633789062500004 0 0.60156250000000011 7.0273437500000009
decision_type=2 2 1 2 2
left_child=1 2 3 4 -1
right_child=-2 -3 -4 -5 -6
leaf_value=0 -0.063599698881599637 0.10623086480324319 -0.0098354199132099137 -0.0032157110679817153 0.020412129648776662
leaf_weight=120 19 13.999999999999998 96 60 42
leaf_count=120 19 14 96 60 42
internal_value=0 0.00545623 -0.000283997 0.00196878 0.00679197
internal_weight=351 332 318 222 162
internal_count=351 332 318 222 162
cat_boundaries=0 1
cat_threshold=1
is_linear=0
shrinkage=0.0515883


Tree=69
num_leaves=8
num_cat=1
split_feature=14 30 4 39 41 15 25
split_gain=43.1133 87.7236 3.30126 1.53881 1.44673 1.14892 1.6644
threshold=6.2460937500000009 3.4633789062500004 0 4.1377679590113177 3.8906250000000004 1.7280975000000005e-27 5869.5367000000006
decision_type=2 2 1 2 2 2 2
left_child=1 2 3 4 -1 -4 -7
right_child=-2 -3 5 -5 -6 6 -8
leaf_value=0 -0.061369182036470134 0.1028875201904406 0 0 0.011899120690945014 -0.011127622990402189 0
leaf_weight=39 19 13.999999999999998 77 12.999999999999998 67 104 18
leaf_count=39 19 14 77 13 67 104 18
internal_value=0 0.00527354 -0.000239842 0.004345 0.0077495 -0.00533371 -0.00854263
internal_weight=351 332 318 119 106 199 122
internal_count=351 332 318 119 106 199 122
cat_boundaries=0 1
cat_threshold=2
is_linear=0
shrinkage=0.0515883


Tree=70
num_leaves=7
num_cat=2
split_feature=80 79 14 29 33 26
split_gain=40.7448 93.6344 65.8087 129.949 16.9113 1.26338
threshold=0 1 4.4453125000000009 7.9375000000000009 19.605468500000004 0.60742187500000011
decision_type=1 1 2 2 2 2
left_child=4 2 3 -2 -1 -3
right_child=1 5 -4 -5 -6 -7
leaf_value=-0.0054199837879648598 0.018228802990514967 0 -0.011333122656519971 0.18804512094312373 -0.059244225322524519 -0.019751364428517902
leaf_weight=173 47 61 12.999999999999998 13.999999999999998 13.999999999999998 28
leaf_count=173 47 61 13 14 14 28
internal_value=0.000686108 0.0195733 0.0613206 0.0832022 -0.0137432 -0.0106223
internal_weight=350 163 74 61 187 89
internal_count=350 163 74 61 187 89
cat_boundaries=0 1 2
cat_threshold=2 1
is_linear=0
shrinkage=0.0515883


Tree=71
num_leaves=7
num_cat=2
split_feature=80 79 14 27 31 26
split_gain=37.7691 87.7935 62.474 120.48 15.8177 1.08068
threshold=0 1 4.4453125000000009 3.6377815075776376 6.8577018647843149 1.1933593750000002
decision_type=1 1 2 2 2 2
left_child=4 2 3 -2 -1 -3
right_child=1 5 -4 -5 -6 -7
leaf_value=-0.0051541272228606688 0.017593205361335365 0 -0.010986828841293966 0.18175048671474109 -0.057379663629720301 -0.022240850727352122
leaf_weight=173 47 71 12.999999999999998 13.999999999999998 13.999999999999998 18
leaf_count=173 47 71 13 14 14 18
internal_value=0.000539234 0.0187825 0.0592421 0.0806287 -0.0133005 -0.010331
internal_weight=350 163 74 61 187 89
internal_count=350 163 74 61 187 89
cat_boundaries=0 1 2
cat_threshold=2 1
is_linear=0
shrinkage=0.0515883


Tree=72
num_leaves=6
num_cat=1
split_feature=14 31 4 78 15
split_gain=42.5475 99.1112 2.42916 1.90449 1.25541
threshold=5.1289062500000009 6.9099073276036416 0 -23.561699999999743 1.0000000180025095e-35
decision_type=2 2 1 2 2
left_child=1 2 -1 -4 -5
right_child=-2 -3 3 4 -6
leaf_value=0.0038838643538591715 -0.057543315348492816 0.10553001627533698 0 0 -0.010412754557977598
leaf_weight=119 21 15.999999999999998 22 65 111
leaf_count=119 21 16 22 65 111
internal_value=0 0.00641419 0 -0.00449527 -0.00722872
internal_weight=354 333 317 198 176
internal_count=354 333 317 198 176
cat_boundaries=0 1
cat_threshold=2
is_linear=0
shrinkage=0.0515883


Tree=73
num_leaves=5
num_cat=1
split_feature=14 31 79 15
split_gain=39.656 92.562 2.96562 2.09687
threshold=5.1289062500000009 6.9099073276036416 0 0.16406250000000003
decision_type=2 2 1 2
left_child=1 2 3 -1
right_child=-2 -3 -4 -5
leaf_value=0.0067268692910839355 -0.055461731876574057 0.10203855884223602 -0.0081662712997625907 -0.00024568033639230276
leaf_weight=134 21 15.999999999999998 96 87
leaf_count=134 21 16 96 87
internal_value=0 0.0062641 0 0.00197153
internal_weight=354 333 317 221
internal_count=354 333 317 221
cat_boundaries=0 1
cat_threshold=1
is_linear=0
shrinkage=0.0515883


Tree=74
num_leaves=7
num_cat=2
split_feature=80 79 29 29 73 29
split_gain=38.1441 98.0483 64.2746 12.8294 2.52647 0.985119
threshold=0 1 12.007812500000002 2.6445312500000004 5877.7071500000011 2.2070312500000004
decision_type=1 1 2 2 2 2
left_child=3 2 -2 -1 -5 -3
right_child=1 5 -4 4 -6 -7
leaf_value=0 0.019825050316559005 0 0.14348894146220889 -0.044893590783630463 0 -0.017283491808863793
leaf_weight=126 55 65 13.999999999999998 28 27 30
leaf_count=126 55 65 14 28 27 30
internal_value=0.0016435 0.0196377 0.0647259 -0.0126347 -0.0325475 -0.00931155
internal_weight=345 164 69 181 55 95
internal_count=345 164 69 181 55 95
cat_boundaries=0 1 2
cat_threshold=2 1
is_linear=0
shrinkage=0.0515883


Tree=75
num_leaves=7
num_cat=1
split_feature=80 26 29 22 29 73
split_gain=35.6873 76.3154 11.9078 4.86607 11.0643 1.94287
threshold=0 4.932128875000001 2.6445312500000004 5753.4846000000007 4.9023437500000009 5877.7071500000011
decision_type=1 2 2 2 2 2
left_child=2 3 -1 -2 -5 -4
right_child=1 -3 5 4 -6 -7
leaf_value=0 -0.0081420201921379928 0.11101410532524478 -0.043138499723344138 0 0.029581416664537816 0
leaf_weight=126 25 12.999999999999998 28 87 39 27
leaf_count=126 25 13 28 87 39 27
internal_value=0.00145057 0.01891 -0.0123104 0.0033655 0.00962877 -0.0315334
internal_weight=345 164 181 151 126 55
internal_count=345 164 181 151 126 55
cat_boundaries=0 1
cat_threshold=2
is_linear=0
shrinkage=0.0515883


Tree=76
num_leaves=5
num_cat=2
split_feature=80 79 31 27
split_gain=27.8273 71.7949 56.62 8.38026
threshold=0 1 4.1934841969204246 1.3023552338359536
decision_type=1 1 2 2
left_child=3 2 -2 -1
right_child=1 -3 -4 -5
leaf_value=0 0.014934330098418028 -0.0081493878882794597 0.1305285208139296 -0.02787096806769895
leaf_weight=129 57 92 12.999999999999998 52
leaf_count=129 57 92 13 52
internal_value=0.00102709 0.0167291 0.0549023 -0.0109076
internal_weight=343 162 70 181
internal_count=343 162 70 181
cat_boundaries=0 1 2
cat_threshold=2 1
is_linear=0
shrinkage=0.0515883


Tree=77
num_leaves=5
num_cat=2
split_feature=3 27 31 80
split_gain=27.1351 72.0855 22.9421 1.25739
threshold=0 2.8131555875328131 6.8577018647843149 1
decision_type=1 2 2 1
left_child=1 -1 3 -2
right_child=2 -3 -4 -5
leaf_value=0 -0.0046526333525001243 0.10337150364094502 -0.051896528398404598 0.0017841903170391922
leaf_weight=90 118 14.999999999999998 19 101
leaf_count=90 118 15 19 101
internal_value=0.000975921 0.0217972 -0.00729165 0
internal_weight=343 105 238 219
internal_count=343 105 238 219
cat_boundaries=0 1 2
cat_threshold=16787557 2
is_linear=0
shrinkage=0.0515883


Tree=78
num_leaves=6
num_cat=2
split_feature=80 79 23 27 29
split_gain=22.5557 57.8054 33.7899 48.0087 13.2597
threshold=0 1 5852.6001000000006 3.5562212592100129 8.9199217500000021
decision_type=1 1 2 2 2
left_child=4 2 3 -2 -1
right_child=1 -3 -4 -5 -6
leaf_value=-0.0043019001483786965 0.0016751645030938331 -0.0076330072029896206 0 0.1316669254952422 -0.053397949216909942
leaf_weight=171 24 99 29 13.999999999999998 12.999999999999998
leaf_count=171 24 99 29 14 13
internal_value=0 0.0129287 0.0487145 0.0758578 -0.0119774
internal_weight=350 166 67 38 184
internal_count=350 166 67 38 184
cat_boundaries=0 1 2
cat_threshold=2 1
is_linear=0
shrinkage=0.0515883


Tree=79
num_leaves=6
num_cat=2
split_feature=80 79 15 27 27
split_gain=21.3434 54.6669 36.0721 53.556 11.8899
threshold=0 1 2.0039062500000004 3.6377815075776376 3.7758061937457321
decision_type=1 1 2 2 2
left_child=4 2 3 -2 -1
right_child=1 -3 -4 -5 -6
leaf_value=-0.003789383232946599 0.012501162944189875 -0.0072718745788557283 0 0.13529760885602374 -0.048172735116001453
leaf_weight=168 40 99 13.999999999999998 12.999999999999998 15.999999999999998
leaf_count=168 40 99 14 13 16
internal_value=0 0.0126141 0.0474351 0.0656375 -0.0116139
internal_weight=350 166 67 53 184
internal_count=350 166 67 53 184
cat_boundaries=0 1 2
cat_threshold=2 1
is_linear=0
shrinkage=0.0515883


Tree=80
num_leaves=4
num_cat=0
split_feature=35 31 27
split_gain=30.7365 8.43329 1.36651
threshold=6.8034328727875719 6.8577018647843149 2.4523836264377281
decision_type=2 2 2
left_child=1 2 -1
right_child=-2 -3 -4
leaf_value=-0.0017229663675124001 0.051856153367651182 -0.033089794034691061 0.0063933805418525174
leaf_weight=253 21 12.999999999999998 61
leaf_count=253 21 13 61
internal_value=0.00094676 -0.0021741 0
internal_weight=348 327 314
internal_count=348 327 314
is_linear=0
shrinkage=0.0515883


Tree=81
num_leaves=4
num_cat=1
split_feature=26 79 31
split_gain=30.3738 2.86538 1.09396
threshold=5.4843750000000009 0 1.6403214085377724
decision_type=2 1 2
left_child=1 -1 -3
right_child=-2 2 -4
leaf_value=0 0.06047218703154511 0 -0.016465938430467179
leaf_weight=240 12.999999999999998 62 33
leaf_count=240 13 62 33
internal_value=0.000858181 -0.00155914 -0.00902247
internal_weight=348 335 95
internal_count=348 335 95
cat_boundaries=0 1
cat_threshold=1
is_linear=0
shrinkage=0.0515883


Tree=82
num_leaves=5
num_cat=1
split_feature=3 29 29 26
split_gain=25.2323 70.8083 58.4391 2.38181
threshold=0 6.6250000000000009 19.367187000000005 3.6230468750000004
decision_type=1 2 2 2
left_child=1 -1 3 -2
right_child=2 -3 -4 -5
leaf_value=0 -0.0024379839378486029 0.10490914165800291 -0.087197071166610282 0.013949674101946682
leaf_weight=95 208 12.999999999999998 13.999999999999998 17
leaf_count=95 208 13 14 17
internal_value=0 0.0196327 -0.00840466 0
internal_weight=347 108 239 225
internal_count=347 108 239 225
cat_boundaries=0 1
cat_threshold=50341957
is_linear=0
shrinkage=0.0515883


Tree=83
num_leaves=5
num_cat=1
split_feature=3 29 29 26
split_gain=23.7318 66.457 54.8737 2.20899
threshold=0 6.6250000000000009 19.367187000000005 3.6230468750000004
decision_type=1 2 2 2
left_child=1 -1 3 -2
right_child=2 -3 -4 -5
leaf_value=0 -0.0023174010532563067 0.10170355040074228 -0.084452769261610286 0.013478204933764054
leaf_weight=95 208 12.999999999999998 13.999999999999998 17
leaf_count=95 208 13 14 17
internal_value=0 0.0190784 -0.00810653 0
internal_weight=347 108 239 225
internal_count=347 108 239 225
cat_boundaries=0 1
cat_threshold=50341957
is_linear=0
shrinkage=0.0515883


Tree=84
num_leaves=7
num_cat=1
split_feature=14 30 80 30 15 30
split_gain=32.7286 50.2966 6.26909 3.10484 2.50559 4.72478
threshold=7.7929687500000009 3.5524902343750004 0 0.9116210937500161 3.6953125000000004 0.63671875000000167
decision_type=2 2 1 2 2 2
left_child=1 2 3 -1 5 -4
right_child=-2 -3 4 -5 -6 -7
leaf_value=0 -0.060848933759575133 0.078021439428201042 0 -0.016475180936648345 0 0.01756343095835353
leaf_weight=109 12.999999999999998 13.999999999999998 62 62 17 75
leaf_count=109 13 14 62 62 17 75
internal_value=0 0.00409574 0 -0.00740502 0.00602042 0.00955384
internal_weight=352 339 325 171 154 137
internal_count=352 339 325 171 154 137
cat_boundaries=0 1
cat_threshold=2
is_linear=0
shrinkage=0.0515883


Tree=85
num_leaves=5
num_cat=0
split_feature=14 30 15 30
split_gain=30.6761 47.2595 3.43367 2.78634
threshold=7.7929687500000009 3.5524902343750004 0.60156250000000011 2.1601562500000067
decision_type=2 2 2 2
left_child=1 2 3 -1
right_child=-2 -3 -4 -5
leaf_value=0 -0.058989641857085974 0.075565923170129556 -0.0092571741917003361 0.016231401321441005
leaf_weight=216 12.999999999999998 13.999999999999998 86 23
leaf_count=216 13 14 86 23
internal_value=0 0.00388994 0 0.00200987
internal_weight=352 339 325 239
internal_count=352 339 325 239
is_linear=0
shrinkage=0.0515883


Tree=86
num_leaves=5
num_cat=1
split_feature=3 39 39 74
split_gain=16.8481 32.8602 29.0847 8.03077
threshold=0 4.050114119076583 3.9847565805395848 0.051944028934547172
decision_type=1 2 2 2
left_child=1 -1 -2 -4
right_child=2 -3 3 -5
leaf_value=0 0 0.069183830595304724 -0.056568713124857881 0
leaf_weight=91 191 13.999999999999998 30 21
leaf_count=91 191 14 30 21
internal_value=-0.0013078 0.0128858 -0.00976188 -0.0415033
internal_weight=347 105 242 51
internal_count=347 105 242 51
cat_boundaries=0 1
cat_threshold=58985537
is_linear=0
shrinkage=0.0515883


Tree=87
num_leaves=5
num_cat=0
split_feature=14 32 10 17
split_gain=29.0384 11.3864 1.07018 1.57836
threshold=7.7929687500000009 0.023437500000000003 0.50000000000000022 0.058593750000000007
decision_type=2 2 2 2
left_child=1 2 3 -1
right_child=-2 -3 -4 -5
leaf_value=-0.0074689218894252738 -0.058031651730587205 0.033816445444371693 0.0018411287696535655 0
leaf_weight=110 13.999999999999998 18 113 92
leaf_count=110 14 18 113 92
internal_value=-0.00120221 0.00122571 -2.31355e-05 -0.00339746
internal_weight=347 333 315 202
internal_count=347 333 315 202
is_linear=0
shrinkage=0.0515883


Tree=88
num_leaves=4
num_cat=1
split_feature=3 27 31
split_gain=21.6875 70.0818 18.974
threshold=0 3.4931137677635169 6.8577018647843149
decision_type=1 2 2
left_child=1 -1 -2
right_child=2 -3 -4
leaf_value=0 0 0.10238530891266104 -0.046161459500195179
leaf_weight=86 227 13.999999999999998 19
leaf_count=86 227 14 19
internal_value=0.00118977 0.0204006 -0.00573561
internal_weight=346 100 246
internal_count=346 100 246
cat_boundaries=0 1
cat_threshold=50604037
is_linear=0
shrinkage=0.0515883


Tree=89
num_leaves=3
num_cat=0
split_feature=14 29
split_gain=25.1714 94.8975
threshold=7.7929687500000009 12.574218750000002
decision_type=2 2
left_child=1 -1
right_child=-2 -3
leaf_value=0 -0.050463841070181779 0.10969201020738464
leaf_weight=320 12.999999999999998 12.999999999999998
leaf_count=320 13 13
internal_value=0.00110891 0.00580753
internal_weight=346 333
internal_count=346 333
is_linear=0
shrinkage=0.0515883


Tree=90
num_leaves=9
num_cat=2
split_feature=80 79 21 61 41 15 78 61
split_gain=13.1709 30.1163 39.416 13.9712 3.42504 2.69039 1.86475 1.26306
threshold=0 1 300.92533000000009 5867.5978000000005 6.2578125000000009 1.6328125000000002 11.920799999999874 5870.6892000000007
decision_type=1 1 2 2 2 2 2 2
left_child=4 2 3 -2 -1 -4 7 -6
right_child=1 -3 5 -5 6 -7 -8 -9
leaf_value=0 0.098967935036844798 -0.0053882814314458721 0.0080651064760946228 0 -0.026398596448461584 -0.014379664474657553 0 0
leaf_weight=91 15.000000000000002 97 25 14.999999999999998 47 14.999999999999998 12.999999999999998 30
leaf_count=91 15 97 25 15 47 15 13 30
internal_value=0 0.00885488 0.0342262 0.0711886 -0.0101187 0 -0.0176043 -0.02036
internal_weight=348 167 70 30 181 40 90 77
internal_count=348 167 70 30 181 40 90 77
cat_boundaries=0 1 2
cat_threshold=2 1
is_linear=0
shrinkage=0.0515883


Tree=91
num_leaves=6
num_cat=2
split_feature=14 80 79 41 83
split_gain=16.8437 16.0964 47.3259 23.0494 1.16678
threshold=6.2460937500000009 0 1 12.007812500000002 20.16992190000008
decision_type=2 1 1 2 2
left_child=1 4 3 -3 -1
right_child=-2 2 -4 -5 -6
leaf_value=0 -0.039323614076641498 0.011300454310500476 -0.0039308089385270131 0.095103684882731188 -0.0091563011462418575
leaf_weight=37 19 47 94 14.999999999999998 136
leaf_count=37 19 47 94 15 136
internal_value=0 0.00218221 0.0143193 0.0478445 -0.00668407
internal_weight=348 329 156 62 173
internal_count=348 329 156 62 173
cat_boundaries=0 1 2
cat_threshold=2 1
is_linear=0
shrinkage=0.0515883


Tree=92
num_leaves=4
num_cat=0
split_feature=30 34 74
split_gain=22.7437 15.4211 2.7026
threshold=5.0769042812500009 3.1705729166666754 0.052229848589953144
decision_type=2 2 2
left_child=1 2 -1
right_child=-2 -3 -4
leaf_value=-0.0052206348566915086 -0.051714809864624109 0.043101355520138683 0.003424169554281434
leaf_weight=219 13.999999999999998 12.999999999999998 102
leaf_count=219 14 13 102
internal_value=-0.00158629 0.000396186 -0.000986388
internal_weight=348 334 321
internal_count=348 334 321
is_linear=0
shrinkage=0.0515883


Tree=93
num_leaves=4
num_cat=1
split_feature=14 30 4
split_gain=26.2294 12.4248 2.24657
threshold=5.1289062500000009 2.9956054687500004 0
decision_type=2 2 1
left_child=1 2 -1
right_child=-2 -3 -4
leaf_value=0.0032300157603160884 -0.046751259471227248 0.0325165323754232 -0.0047168114072148699
leaf_weight=114 23 23 188
leaf_count=114 23 23 188
internal_value=-0.00144787 0.00147369 -0.000199516
internal_weight=348 325 302
internal_count=348 325 302
cat_boundaries=0 1
cat_threshold=2
is_linear=0
shrinkage=0.0515883


Tree=94
num_leaves=5
num_cat=1
split_feature=80 27 33 27
split_gain=23.9242 67.1797 6.41911 2.09996
threshold=0 5.8754822251521999 5.1210937500000009 1.0768668477534675
decision_type=1 2 2 2
left_child=2 -2 -1 -4
right_child=1 -3 3 -5
leaf_value=0 0.001506701638888162 0.10294060298320959 0 -0.028646470414825733
leaf_weight=136 141 12.999999999999998 15.999999999999998 37
leaf_count=136 141 13 16 37
internal_value=0.00216001 0.0171726 -0.00829574 -0.0227696
internal_weight=343 154 189 53
internal_count=343 154 189 53
cat_boundaries=0 1
cat_threshold=2
is_linear=0
shrinkage=0.0515883


Tree=95
num_leaves=4
num_cat=1
split_feature=80 27 31
split_gain=22.6107 62.9895 6.11048
threshold=0 5.8754822251521999 6.8577018647843149
decision_type=1 2 2
left_child=2 -2 -1
right_child=1 -3 -4
leaf_value=-0.0020547543306538895 0.0014336121073200234 0.099795162669731999 -0.036709460546212234
leaf_weight=176 141 12.999999999999998 12.999999999999998
leaf_count=176 141 13 13
internal_value=0.00208808 0.01671 -0.00803279
internal_weight=343 154 189
internal_count=343 154 189
cat_boundaries=0 1
cat_threshold=2
is_linear=0
shrinkage=0.0515883


Tree=96
num_leaves=3
num_cat=0
split_feature=14 27
split_gain=24.514 96.5876
threshold=7.7929687500000009 5.8754822251521999
decision_type=2 2
left_child=1 -1
right_child=-2 -3
leaf_value=0 -0.04676458681084459 0.11109240050672217
leaf_weight=326 14.999999999999998 12.999999999999998
leaf_count=326 15 13
internal_value=0.001621 0.0063025
internal_weight=354 339
internal_count=354 339
is_linear=0
shrinkage=0.0515883


Tree=97
num_leaves=5
num_cat=1
split_feature=3 27 31 26
split_gain=19.0311 60.5519 16.1376 1.49773
threshold=0 3.6377815075776376 6.8577018647843149 3.3271484375000004
decision_type=1 2 2 2
left_child=1 -1 3 -2
right_child=2 -3 -4 -5
leaf_value=0 -0.0022583560871612847 0.097630634845938313 -0.044926672021914263 0.01115199434064618
leaf_weight=98 213 12.999999999999998 15.999999999999998 13.999999999999998
leaf_count=98 213 13 16 14
internal_value=0.00151543 0.0184755 -0.00521539 0
internal_weight=354 111 243 227
internal_count=354 111 243 227
cat_boundaries=0 1
cat_threshold=50604069
is_linear=0
shrinkage=0.0515883


Tree=98
num_leaves=4
num_cat=0
split_feature=44 27 29
split_gain=23.1048 25.2227 24.9225
threshold=302.28393500000004 1.0355190048615359 19.367187000000005
decision_type=2 2 2
left_child=2 -2 -1
right_child=1 -3 -4
leaf_value=0 0 0.075216911882589998 -0.056783799059957479
leaf_weight=303 18.000000000000004 12.999999999999998 12.999999999999998
leaf_count=303 18 13 13
internal_value=0 0.0377894 -0.00369741
internal_weight=347 31 316
internal_count=347 31 316
is_linear=0
shrinkage=0.0515883


Tree=99
num_leaves=4
num_cat=0
split_feature=18 30 27
split_gain=17.0617 53.6528 26.687
threshold=305.69032500000009 1.9721679687500033 5.6957854372236101
decision_type=2 2 2
left_child=2 -2 -1
right_child=1 -3 -4
leaf_value=0 0 0.090714109262199125 -0.056131890438758388
leaf_weight=258 60 12.999999999999998 15.999999999999998
leaf_count=258 60 13 16
internal_value=0 0.021484 -0.00517687
internal_weight=347 73 274
internal_count=347 73 274
is_linear=0
shrinkage=0.0515883


Tree=100
num_leaves=4
num_cat=1
split_feature=3 26 29
split_gain=20.4767 53.2666 35.9966
threshold=0 3.1093750000000004 19.367187000000005
decision_type=1 2 2
left_child=1 -1 -2
right_child=2 -3 -4
leaf_value=0 0 0.09181777377437543 -0.071086989843491974
leaf_weight=99 226 12.999999999999998 12.999999999999998
leaf_count=99 226 13 13
internal_value=0 0.0174708 -0.00750445
internal_weight=351 112 239
internal_count=351 112 239
cat_boundaries=0 1
cat_threshold=50595941
is_linear=0
shrinkage=0.0515883


Tree=101
num_leaves=4
num_cat=1
split_feature=3 26 29
split_gain=19.4136 49.9462 33.7649
threshold=0 3.1093750000000004 19.367187000000005
decision_type=1 2 2
left_child=1 -1 -2
right_child=2 -3 -4
leaf_value=0 0 0.089012201131377297 -0.068914866338743358
leaf_weight=99 226 12.999999999999998 12.999999999999998
leaf_count=99 226 13 13
internal_value=0 0.0170005 -0.00731963
internal_weight=351 112 239
internal_count=351 112 239
cat_boundaries=0 1
cat_threshold=50595941
is_linear=0
shrinkage=0.0515883


Tree=102
num_leaves=3
num_cat=0
split_feature=15 26
split_gain=17.95 41.2957
threshold=7.2968750000000009 4.2880859375000009
decision_type=2 2
left_child=1 -1
right_child=-2 -3
leaf_value=-9.3246280253143522e-05 -0.042693551386395003 0.066288106784879466
leaf_weight=326 14.999999999999998 17
leaf_count=326 15 17
internal_value=0 0.0034214
internal_weight=358 343
internal_count=358 343
is_linear=0
shrinkage=0.0515883


Tree=103
num_leaves=3
num_cat=0
split_feature=15 26
split_gain=16.7651 38.5906
threshold=7.2968750000000009 4.2880859375000009
decision_type=2 2
left_child=1 -1
right_child=-2 -3
leaf_value=-8.856421966475614e-05 -0.041314023322253188 0.064047695541876323
leaf_weight=326 14.999999999999998 17
leaf_count=326 15 17
internal_value=0 0.00326068
internal_weight=358 343
internal_count=358 343
is_linear=0
shrinkage=0.0515883


Tree=104
num_leaves=3
num_cat=0
split_feature=35 31
split_gain=17.625 17.7972
threshold=10.272529811440711 6.8577018647843149
decision_type=2 2
left_child=1 -1
right_child=-2 -3
leaf_value=0 0.044775073982653728 -0.039060140729280809
leaf_weight=314 12.999999999999998 24
leaf_count=314 13 24
internal_value=0 -0.00289331
internal_weight=351 338
internal_count=351 338
is_linear=0
shrinkage=0.0515883


Tree=105
num_leaves=3
num_cat=0
split_feature=15 30
split_gain=17.0989 26.1234
threshold=7.2968750000000009 3.5524902343750004
decision_type=2 2
left_child=1 -1
right_child=-2 -3
leaf_value=0 -0.041246554002111892 0.056240773033029018
leaf_weight=321 15.999999999999998 13.999999999999998
leaf_count=321 16 14
internal_value=0 0.00298379
internal_weight=351 335
internal_count=351 335
is_linear=0
shrinkage=0.0515883


Tree=106
num_leaves=4
num_cat=1
split_feature=3 26 29
split_gain=21.7855 66.8155 34.1754
threshold=0 2.9326171875000004 19.367187000000005
decision_type=1 2 2
left_child=1 -1 -2
right_child=2 -3 -4
leaf_value=0 0 0.10213213172865641 -0.068316220429342878
leaf_weight=95 234 12.999999999999998 12.999999999999998
leaf_count=95 234 13 13
internal_value=0.000676328 0.0192608 -0.006446
internal_weight=355 108 247
internal_count=355 108 247
cat_boundaries=0 1
cat_threshold=50604037
is_linear=0
shrinkage=0.0515883


Tree=107
num_leaves=4
num_cat=1
split_feature=3 27 31
split_gain=20.6 73.6518 27.8523
threshold=0 3.44924370248896 6.8577018647843149
decision_type=1 2 2
left_child=1 -1 -2
right_child=2 -3 -4
leaf_value=0 0 0.10550469401813167 -0.054187840914279771
leaf_weight=95 227 12.999999999999998 20
leaf_count=95 227 13 20
internal_value=0.000614015 0.0187212 -0.00627373
internal_weight=355 108 247
internal_count=355 108 247
cat_boundaries=0 1
cat_threshold=50604037
is_linear=0
shrinkage=0.0515883


Tree=108
num_leaves=4
num_cat=1
split_feature=3 27 27
split_gain=17.3821 51.4115 17.2104
threshold=0 3.44924370248896 6.3238633751103963
decision_type=1 2 2
left_child=1 -1 -2
right_child=2 -3 -4
leaf_value=0 -0.00098733777342858791 0.08670458868989174 -0.052141578097215549
leaf_weight=87 223 13.999999999999998 12.999999999999998
leaf_count=87 223 14 13
internal_value=0 0.0165156 -0.00728815
internal_weight=337 101 236
internal_count=337 101 236
cat_boundaries=0 1
cat_threshold=50595909
is_linear=0
shrinkage=0.0515883


Tree=109
num_leaves=4
num_cat=1
split_feature=3 27 27
split_gain=16.3666 48.2299 16.1137
threshold=0 3.44924370248896 6.3238633751103963
decision_type=1 2 2
left_child=1 -1 -2
right_child=2 -3 -4
leaf_value=0 -0.00093836747933781137 0.083975782168619506 -0.050548346996079824
leaf_weight=87 223 13.999999999999998 12.999999999999998
leaf_count=87 223 14 13
internal_value=0 0.0159936 -0.00710644
internal_weight=337 101 236
internal_count=337 101 236
cat_boundaries=0 1
cat_threshold=50595909
is_linear=0
shrinkage=0.0515883


Tree=110
num_leaves=3
num_cat=0
split_feature=14 27
split_gain=15.3853 51.9698
threshold=7.7929687500000009 6.3238633751103963
decision_type=2 2
left_child=1 -1
right_child=-2 -3
leaf_value=0 -0.039655424817219016 0.081220151922860723
leaf_weight=317 12.999999999999998 12.999999999999998
leaf_count=317 13 13
internal_value=0.000359639 0.00437121
internal_weight=343 330
internal_count=343 330
is_linear=0
shrinkage=0.0515883


Tree=111
num_leaves=4
num_cat=1
split_feature=14 31 79
split_gain=14.4359 54.3696 1.08682
threshold=7.7929687500000009 6.9099073276036416 0
decision_type=2 2 1
left_child=1 2 -1
right_child=-2 -3 -4
leaf_value=0.00026022311996899515 -0.038443719109099064 0.079328280757558933 -0.0053918077005676657
leaf_weight=225 12.999999999999998 14.999999999999998 90
leaf_count=225 13 15 90
internal_value=0.000280436 0.00421051 0
internal_weight=343 330 315
internal_count=343 330 315
cat_boundaries=0 1
cat_threshold=1
is_linear=0
shrinkage=0.0515883


Tree=112
num_leaves=4
num_cat=0
split_feature=14 31 35
split_gain=16.9556 17.6509 1.55416
threshold=7.7929687500000009 8.218070021997244 5.6106735924066395
decision_type=2 2 2
left_child=1 2 -1
right_child=-2 -3 -4
leaf_value=0 -0.04375426121310072 0.045933747570150993 -0.01226881030211545
leaf_weight=305 14.999999999999998 12.999999999999998 23
leaf_count=305 15 13 23
internal_value=-0.00141335 0.00013536 -0.00141305
internal_weight=356 341 328
internal_count=356 341 328
is_linear=0
shrinkage=0.0515883


Tree=113
num_leaves=3
num_cat=0
split_feature=35 29
split_gain=16.7118 50.3532
threshold=10.272529811440711 19.367187000000005
decision_type=2 2
left_child=1 -1
right_child=-2 -3
leaf_value=0 0.040100811888704964 -0.077508130291330163
leaf_weight=328 12.999999999999998 14.999999999999998
leaf_count=328 13 15
internal_value=-0.00136509 -0.0052934
internal_weight=356 343
internal_count=356 343
is_linear=0
shrinkage=0.0515883


Tree=114
num_leaves=4
num_cat=0
split_feature=78 31 74
split_gain=11.6884 30.0154 10.4166
threshold=-19.755549999999854 6.8577018647843149 0.051701809582234373
decision_type=2 2 2
left_child=2 -2 -1
right_child=1 -3 -4
leaf_value=0 0 -0.053470153665380042 0.041936344567107313
leaf_weight=30 282 24 17
leaf_count=30 282 24 17
internal_value=-0.00176243 -0.00674285 0.0178927
internal_weight=353 306 47
internal_count=353 306 47
is_linear=0
shrinkage=0.0515883


Tree=115
num_leaves=5
num_cat=1
split_feature=15 3 31 31
split_gain=12.6007 6.29707 26.9477 13.9756
threshold=7.2968750000000009 0 3.4324807611950896 6.7889099229856065
decision_type=2 1 2 2
left_child=1 2 -1 -3
right_child=-2 3 -4 -5
leaf_value=0 -0.037987174404111028 0 0.062479167029179342 -0.042395448919017718
leaf_weight=96 14.999999999999998 215 12.999999999999998 13.999999999999998
leaf_count=96 15 215 13 14
internal_value=-0.00168114 0 0.0100292 -0.00396042
internal_weight=353 338 109 229
internal_count=353 338 109 229
cat_boundaries=0 1
cat_threshold=50669577
is_linear=0
shrinkage=0.0515883


Tree=116
num_leaves=5
num_cat=1
split_feature=44 21 29 80
split_gain=16.7148 20.7261 11.7354 0.985577
threshold=302.28393500000004 303.49144000000007 19.367187000000005 0
decision_type=2 2 2 1
left_child=2 -2 3 -1
right_child=1 -3 -4 -5
leaf_value=-0.0026309596028766783 0.066632424278703209 0 -0.037361033314861999 0.0029175309466469832
leaf_weight=151 13.000000000000002 13.999999999999998 14.999999999999998 151
leaf_count=151 13 14 15 151
internal_value=0 0.0342981 -0.0025956 0
internal_weight=344 27 317 302
internal_count=344 27 317 302
cat_boundaries=0 1
cat_threshold=2
is_linear=0
shrinkage=0.0515883


Tree=117
num_leaves=6
num_cat=2
split_feature=80 79 11 83 29
split_gain=12.651 32.5462 36.7167 9.3565 3.14911
threshold=0 1 -1.0000000180025095e-35 106.01562500000098 2.6445312500000004
decision_type=1 1 2 2 2
left_child=4 2 -2 -4 -1
right_child=1 -3 3 -5 -6
leaf_value=0 0.088307759110486828 -0.0051901762606449825 0.020709345462017015 -0.012423360488487934 -0.019021786858285206
leaf_weight=120 17 95 41 18 53
leaf_count=120 17 95 41 18 53
internal_value=0 0.0103547 0.0352102 0.00316323 -0.00832485
internal_weight=344 171 76 59 173
internal_count=344 171 76 59 173
cat_boundaries=0 1 2
cat_threshold=2 1
is_linear=0
shrinkage=0.0515883


Tree=118
num_leaves=8
num_cat=1
split_feature=18 70 3 81 47 73 21
split_gain=9.91167 14.6615 7.6967 10.9978 7.72327 6.47258 1.24559
threshold=309.71060000000006 5837.5293854166675 0 18.601562500000004 1.9283584417105961 5880.266700000001 301.65442000000002
decision_type=2 2 1 2 2 2 2
left_child=2 -2 6 -4 -5 -6 -1
right_child=1 -3 3 4 5 -7 -8
leaf_value=0.0081147062303928378 0.05110013567355174 0 0 0 -0.045188009565295006 0 0
leaf_weight=62 12.999999999999998 19 143 13.999999999999998 38 18 43
leaf_count=62 13 19 143 14 38 18 43
internal_value=-0.000838532 0.0211358 -0.00505014 -0.0109034 -0.0271247 -0.0347968 0.00317235
internal_weight=350 32 318 213 70 56 105
internal_count=350 32 318 213 70 56 105
cat_boundaries=0 1
cat_threshold=38283873
is_linear=0
shrinkage=0.0515883


Tree=119
num_leaves=4
num_cat=0
split_feature=15 39 81
split_gain=9.22955 10.3513 7.12664
threshold=1.5703125000000002 4.1377679590113177 38.046875000000107
decision_type=2 2 2
left_child=2 -2 -1
right_child=1 -3 -4
leaf_value=0 0 -0.046187435302183923 0.030334874406960179
leaf_weight=268 54 14.999999999999998 12.999999999999998
leaf_count=268 54 15 13
internal_value=-0.000759524 -0.0173779 0.00205995
internal_weight=350 69 281
internal_count=350 69 281
is_linear=0
shrinkage=0.0515883


Tree=120
num_leaves=3
num_cat=0
split_feature=14 26
split_gain=16.7934 50.7356
threshold=5.1289062500000009 4.2880859375000009
decision_type=2 2
left_child=1 -1
right_child=-2 -3
leaf_value=-0.00033547963946017932 -0.034161965605981344 0.073469693667283079
leaf_weight=314 25 17
leaf_count=314 25 17
internal_value=0 0.00386352
internal_weight=356 331
internal_count=356 331
is_linear=0
shrinkage=0.0515883


Tree=121
num_leaves=3
num_cat=0
split_feature=15 26
split_gain=12.5612 28.2256
threshold=7.2968750000000009 4.1669921875000009
decision_type=2 2
left_child=1 -1
right_child=-2 -3
leaf_value=-0.00037619324382241574 -0.035746845602032208 0.048624226006987167
leaf_weight=317 14.999999999999998 24
leaf_count=317 15 24
internal_value=0 0.00284269
internal_weight=356 341
internal_count=356 341
is_linear=0
shrinkage=0.0515883


Tree=122
num_leaves=7
num_cat=1
split_feature=14 78 38 3 67 15
split_gain=12.0698 8.22607 9.32416 2.02044 1.92535 1.16032
threshold=5.1289062500000009 -20.121749999999789 0.85945638125000323 0 14.584300283766812 1.7280975000000005e-27
decision_type=2 2 2 1 2 2
left_child=1 2 -1 4 -3 -5
right_child=-2 3 -4 5 -6 -7
leaf_value=0 -0.031852526769448282 0.011695031355170514 0.045438329340472199 0 0 -0.0084656789858817364
leaf_weight=31 22 36 13.999999999999998 82 70 100
leaf_count=31 22 36 14 82 70 100
internal_value=-1.12625e-05 0.00145347 0.0204517 -0.000409675 0.00274543 -0.00472441
internal_weight=355 333 45 288 106 182
internal_count=355 333 45 288 106 182
cat_boundaries=0 1
cat_threshold=13895693
is_linear=0
shrinkage=0.0515883


Tree=123
num_leaves=5
num_cat=0
split_feature=15 51 17 55
split_gain=10.9145 7.41883 10.1846 2.04328
threshold=7.2968750000000009 2.0533770220435463 0.58593750000000011 3.1758228354443472
decision_type=2 2 2 2
left_child=1 2 -1 -3
right_child=-2 3 -4 -5
leaf_value=0.041850381349530168 -0.03459723491228385 -0.0093969932054817958 0 0
leaf_weight=18 14.999999999999998 53 18 251
leaf_count=18 15 53 18 251
internal_value=0 0.00104617 0.0211433 -0.000321538
internal_weight=355 340 36 304
internal_count=355 340 36 304
is_linear=0
shrinkage=0.0515883


Tree=124
num_leaves=3
num_cat=0
split_feature=14 26
split_gain=13.2035 68.2785
threshold=7.7929687500000009 4.717773375000001
decision_type=2 2
left_child=1 -1
right_child=-2 -3
leaf_value=-4.1036396747024582e-05 -0.035696276149265023 0.088894175735936179
leaf_weight=329 12.999999999999998 14.999999999999998
leaf_count=329 13 15
internal_value=0.000989699 0.00461915
internal_weight=357 344
internal_count=357 344
is_linear=0
shrinkage=0.0515883


Tree=125
num_leaves=3
num_cat=0
split_feature=27 35
split_gain=17.6885 1.6125
threshold=9.7324296401008983 5.6106735924066395
decision_type=2 2
left_child=1 -1
right_child=-2 -3
leaf_value=0 0.045347579791866585 -0.010977292291390689
leaf_weight=315 13.999999999999998 28
leaf_count=315 14 28
internal_value=0.000869047 -0.000676096
internal_weight=357 343
internal_count=357 343
is_linear=0
shrinkage=0.0515883


Tree=126
num_leaves=4
num_cat=1
split_feature=14 80 26
split_gain=9.55836 5.19085 8.22528
threshold=5.1289062500000009 0 3.6230468750000004
decision_type=2 1 2
left_child=1 -1 -3
right_child=-2 2 -4
leaf_value=-0.006139035914572169 -0.030712444057481438 0 0.036399638944604178
leaf_weight=168 21 139 12.999999999999998
leaf_count=168 21 139 13
internal_value=-0.002834 0 0.00629262
internal_weight=341 320 152
internal_count=341 320 152
cat_boundaries=0 1
cat_threshold=2
is_linear=0
shrinkage=0.0515883


Tree=127
num_leaves=3
num_cat=1
split_feature=34 80
split_gain=6.89149 5.95108
threshold=4.0115559791666673 0
decision_type=2 1
left_child=1 -1
right_child=-2 -3
leaf_value=-0.0068024592462636339 -0.027789221003027217 0.006423423542251251
leaf_weight=170 18 153
leaf_count=170 18 153
internal_value=-0.00265664 0
internal_weight=341 323
internal_count=341 323
cat_boundaries=0 1
cat_threshold=2
is_linear=0
shrinkage=0.0515883


Tree=128
num_leaves=5
num_cat=0
split_feature=14 35 39 15
split_gain=10.5428 42.6003 8.75253 1.39144
threshold=4.9570312500000009 6.8034328727875719 3.1806459006841474 0.28906250000000006
decision_type=2 2 2 2
left_child=1 3 -2 -1
right_child=2 -3 -4 -5
leaf_value=0 0 0.065950132476949017 -0.045456666323871929 -0.0061675876681968065
leaf_weight=201 15.000000000000002 18 13.999999999999998 91
leaf_count=201 15 18 14 91
internal_value=0 0.00351186 -0.0252136 -0.000573082
internal_weight=339 310 29 292
internal_count=339 310 29 292
is_linear=0
shrinkage=0.0515883


Tree=129
num_leaves=4
num_cat=0
split_feature=78 29 29
split_gain=10.0299 29.1903 16.4066
threshold=-10.837250000000038 7.3671875000000009 19.367187000000005
decision_type=2 2 2
left_child=1 -1 -2
right_child=2 -3 -4
leaf_value=0 0 0.066988794591222769 -0.045486747575435145
leaf_weight=73 238 12.999999999999998 14.999999999999998
leaf_count=73 238 13 15
internal_value=0 0.0148034 -0.00474032
internal_weight=339 86 253
internal_count=339 86 253
is_linear=0
shrinkage=0.0515883


Tree=130
num_leaves=7
num_cat=1
split_feature=80 44 39 27 82 21
split_gain=11.7089 25.5179 7.54492 4.12665 2.78502 3.62691
threshold=0 302.28393500000004 5.7417558098855483 1.3023552338359536 27.832031250000028 301.04912000000007
decision_type=1 2 2 2 2 2
left_child=3 2 4 -1 -2 -6
right_child=1 -3 -4 -5 5 -7
leaf_value=0 0 0.06265225234707511 -0.018890756858815257 -0.018862051309251497 0.030041487825438768 0
leaf_weight=129 76 13.999999999999998 22 52 20 37
leaf_count=129 76 14 22 52 20 37
internal_value=0.00021403 0.0105733 0.000395271 -0.00713054 0.00798962 0.0158047
internal_weight=350 169 155 181 133 57
internal_count=350 169 155 181 133 57
cat_boundaries=0 1
cat_threshold=2
is_linear=0
shrinkage=0.0515883


Tree=131
num_leaves=6
num_cat=1
split_feature=35 3 31 29 43
split_gain=11.5077 4.69181 14.678 4.31186 5.34864
threshold=10.272529811440711 0 6.8577018647843149 2.3437500000000004 2.3222519804450981
decision_type=2 1 2 2 2
left_child=1 3 -3 -1 -5
right_child=-2 2 -4 4 -6
leaf_value=0 0.037244163730580891 0 -0.043820080250849866 0 0.028243911169284125
leaf_weight=60 12.999999999999998 217 15.999999999999998 14.999999999999998 29
leaf_count=60 13 217 16 15 29
internal_value=0.000202311 -0.000752003 -0.00580536 0.00583844 0.0174037
internal_weight=350 337 233 104 44
internal_count=350 337 233 104 44
cat_boundaries=0 1
cat_threshold=38021161
is_linear=0
shrinkage=0.0515883


Tree=132
num_leaves=3
num_cat=0
split_feature=31 35
split_gain=8.27411 1.61809
threshold=8.218070021997244 5.6106735924066395
decision_type=2 2
left_child=1 -1
right_child=-2 -3
leaf_value=0 0.029423086017862501 -0.011631871521606579
leaf_weight=294 15.999999999999998 26
leaf_count=294 16 26
internal_value=0 -0.0011329
internal_weight=336 320
internal_count=336 320
is_linear=0
shrinkage=0.0515883


Tree=133
num_leaves=5
num_cat=0
split_feature=14 31 73 35
split_gain=15.0361 70.5138 1.0893 1.47634
threshold=7.7929687500000009 6.9099073276036416 5866.1882500000011 3.6392059424446743
decision_type=2 2 2 2
left_child=1 2 -1 -4
right_child=-2 -3 3 -5
leaf_value=0 -0.039207500939566979 0.091466722856726287 0 -0.015055119133537773
leaf_weight=110 13.999999999999998 13.999999999999998 175 23
leaf_count=110 14 14 175 23
internal_value=0 0.00378443 -0.00114177 -0.00400063
internal_weight=336 322 308 198
internal_count=336 322 308 198
is_linear=0
shrinkage=0.0515883


Tree=134
num_leaves=4
num_cat=0
split_feature=44 63 26
split_gain=12.2298 30.0989 21.475
threshold=301.97180000000009 12.056000102386657 4.8710936250000012
decision_type=2 2 2
left_child=2 -2 -1
right_child=1 -3 -4
leaf_value=0 0.069580431641502224 0 -0.049485807770495098
leaf_weight=289 12.999999999999998 25 17
leaf_count=289 13 25 17
internal_value=0 0.023604 -0.00450458
internal_weight=344 38 306
internal_count=344 38 306
is_linear=0
shrinkage=0.0515883


Tree=135
num_leaves=4
num_cat=0
split_feature=44 26 54
split_gain=11.3297 20.2498 18.5353
threshold=302.28393500000004 4.8710936250000012 305.25554125000002
decision_type=2 2 2
left_child=1 -1 -2
right_child=2 -3 -4
leaf_value=0 0.058085782892964351 -0.04781328297787138 0
leaf_weight=295 12.999999999999998 17 19
leaf_count=295 13 17 19
internal_value=0 -0.00411275 0.0245718
internal_weight=344 312 32
internal_count=344 312 32
is_linear=0
shrinkage=0.0515883


Tree=136
num_leaves=5
num_cat=1
split_feature=35 38 79 29
split_gain=10.0846 5.70857 3.01261 10.0263
threshold=10.272529811440711 2.874918614583335 0 7.3671875000000009
decision_type=2 2 1 2
left_child=1 2 3 -1
right_child=-2 -3 -4 -5
leaf_value=0 0.035139975317099274 -0.021689875065694038 -0.0047535705314605209 0.031479443868113098
leaf_weight=200 12.999999999999998 23 89 24
leaf_count=200 13 23 89 24
internal_value=0.000857651 0 0.000710322 0.00506105
internal_weight=349 336 313 224
internal_count=349 336 313 224
cat_boundaries=0 1
cat_threshold=1
is_linear=0
shrinkage=0.0515883


Tree=137
num_leaves=6
num_cat=1
split_feature=35 38 79 29 30
split_gain=9.48123 5.28806 2.7995 9.39425 2.19996
threshold=10.272529811440711 2.874918614583335 0 5.9179687500000009 2.1601562500000067
decision_type=2 2 1 2 2
left_child=1 2 3 -1 -5
right_child=-2 -3 -4 4 -6
leaf_value=0 0.034066240207373977 -0.020884330921334824 -0.0045307451603027963 0 0.034311666817172341
leaf_weight=180 12.999999999999998 23 89 22 22
leaf_count=180 13 23 89 22 22
internal_value=0.000815799 0 0.000657053 0.00489374 0.0240323
internal_weight=349 336 313 224 44
internal_count=349 336 313 224 44
cat_boundaries=0 1
cat_threshold=1
is_linear=0
shrinkage=0.0515883


Tree=138
num_leaves=3
num_cat=0
split_feature=15 26
split_gain=11.3376 48.3788
threshold=7.2968750000000009 4.2880859375000009
decision_type=2 2
left_child=1 -1
right_child=-2 -3
leaf_value=-8.3100044698767258e-06 -0.031306290298570676 0.07065727905648278
leaf_weight=320 15.999999999999998 18
leaf_count=320 16 18
internal_value=0.000415973 0.00408328
internal_weight=354 338
internal_count=354 338
is_linear=0
shrinkage=0.0515883


Tree=139
num_leaves=3
num_cat=0
split_feature=15 26
split_gain=10.5542 45.1512
threshold=7.2968750000000009 4.2880859375000009
decision_type=2 2
left_child=1 -1
right_child=-2 -3
leaf_value=-7.8929371010054617e-06 -0.030270521442296087 0.068222554472627983
leaf_weight=320 15.999999999999998 18
leaf_count=320 16 18
internal_value=0.000306773 0.00389456
internal_weight=354 338
internal_count=354 338
is_linear=0
shrinkage=0.0515883


Tree=140
num_leaves=3
num_cat=0
split_feature=14 35
split_gain=14.0417 15.6254
threshold=7.2109375000000009 6.8034328727875719
decision_type=2 2
left_child=1 -1
right_child=-2 -3
leaf_value=0 -0.040559780353518732 0.039874753225823067
leaf_weight=309 12.999999999999998 18
leaf_count=309 13 18
internal_value=0 0.00193886
internal_weight=340 327
internal_count=340 327
is_linear=0
shrinkage=0.0515883


Tree=141
num_leaves=5
num_cat=0
split_feature=44 35 74 77
split_gain=11.3116 21.0254 17.813 13.1915
threshold=302.28393500000004 5.6106735924066395 0.051911908620919316 -0.60827500000002022
decision_type=2 2 2 2
left_child=1 -1 -3 -2
right_child=3 2 -4 -5
leaf_value=0 0.051296147357327702 -0.0556393733754382 0 0
leaf_weight=271 14.000000000000002 26 12.999999999999998 15.999999999999998
leaf_count=271 14 26 13 16
internal_value=0 -0.00389057 -0.0356048 0.0254749
internal_weight=340 310 39 30
internal_count=340 310 39 30
is_linear=0
shrinkage=0.0515883


Tree=142
num_leaves=4
num_cat=0
split_feature=18 26 29
split_gain=9.23791 34.9794 14.4542
threshold=305.69032500000009 2.0371093750000164 19.367187000000005
decision_type=2 2 2
left_child=2 -2 -1
right_child=1 -3 -4
leaf_value=0 0 0.07057920407643252 -0.042694563989892562
leaf_weight=259 55 13.999999999999998 13.999999999999998
leaf_count=259 55 14 14
internal_value=0 0.0165004 -0.00345364
internal_weight=342 69 273
internal_count=342 69 273
is_linear=0
shrinkage=0.0515883


Tree=143
num_leaves=4
num_cat=0
split_feature=44 77 29
split_gain=8.77051 15.3408 11.0918
threshold=302.28393500000004 -0.60827500000002022 19.367187000000005
decision_type=2 2 2
left_child=2 -2 -1
right_child=1 -3 -4
leaf_value=0 0.053558435488783245 0 -0.035095844685052509
leaf_weight=297 13.000000000000002 15.999999999999998 15.999999999999998
leaf_count=297 13 16 16
internal_value=0 0.0241495 -0.00193865
internal_weight=342 29 313
internal_count=342 29 313
is_linear=0
shrinkage=0.0515883


Tree=144
num_leaves=6
num_cat=0
split_feature=78 59 14 21 15
split_gain=9.65608 9.97614 6.16391 3.00037 2.06153
threshold=-10.837250000000038 11.377805665294849 0.89843750000000011 301.04912000000007 0.60156250000000011
decision_type=2 2 2 2 2
left_child=1 -1 -2 -4 -5
right_child=2 -3 3 4 -6
leaf_value=0.03589352316494375 0 0 0 0 -0.03243131565278471
leaf_weight=23 181 67 23 21 30
